{"learner":{"attributes":{},"feature_names":[],"feature_types":[],"gradient_booster":{"model":{"cats":{"enc":[],"feature_segments":[],"sorted_idx":[]},"gbtree_model_param":{"num_parallel_tree":"1","num_trees":"200"},"iteration_indptr":[0,1,2,3,4,5,6,7,8,9,10,11,12,13,14,15,16,17,18,19,20,21,22,23,24,25,26,27,28,29,30,31,32,33,34,35,36,37,38,39,40,41,42,43,44,45,46,47,48,49,50,51,52,53,54,55,56,57,58,59,60,61,62,63,64,65,66,67,68,69,70,71,72,73,74,75,76,77,78,79,80,81,82,83,84,85,86,87,88,89,90,91,92,93,94,95,96,97,98,99,100,101,102,103,104,105,106,107,108,109,110,111,112,113,114,115,116,117,118,119,120,121,122,123,124,125,126,127,128,129,130,131,132,133,134,135,136,137,138,139,140,141,142,143,144,145,146,147,148,149,150,151,152,153,154,155,156,157,158,159,160,161,162,163,164,165,166,167,168,169,170,171,172,173,174,175,176,177,178,179,180,181,182,183,184,185,186,187,188,189,190,191,192,193,194,195,196,197,198,199,200],"tree_info":[0,0,0,0,0,0,0,0,0,0,0,0,0,0,0,0,0,0,0,0,0,0,0,0,0,0,0,0,0,0,0,0,0,0,0,0,0,0,0,0,0,0,0,0,0,0,0,0,0,0,0,0,0,0,0,0,0,0,0,0,0,0,0,0,0,0,0,0,0,0,0,0,0,0,0,0,0,0,0,0,0,0,0,0,0,0,0,0,0,0,0,0,0,0,0,0,0,0,0,0,0,0,0,0,0,0,0,0,0,0,0,0,0,0,0,0,0,0,0,0,0,0,0,0,0,0,0,0,0,0,0,0,0,0,0,0,0,0,0,0,0,0,0,0,0,0,0,0,0,0,0,0,0,0,0,0,0,0,0,0,0,0,0,0,0,0,0,0,0,0,0,0,0,0,0,0,0,0,0,0,0,0,0,0,0,0,0,0,0,0,0,0,0,0,0,0,0,0,0,0],"trees":[{"base_weights":[9.567996E-3,-6.451171E-1,2.71904E-1,6.6867566E-1,-7.467778E-1,6.40472E-1,-1.5702796E-1,8.610408E-2,-2.432297E-2,-4.9836103E-2,5.8497317E-2,4.3718405E-2,-3.173905E-2,-2.9639812E-2,2.476188E-2],"categories":[],"categories_nodes":[],"categories_segments":[],"categories_sizes":[],"default_left":[0,0,0,0,1,0,0,0,0,0,0,0,0,0,0],"id":0,"left_children":[1,3,5,7,9,11,13,-1,-1,-1,-1,-1,-1,-1,-1],"loss_changes":[2.3562855E1,5.7419186E0,1.5580997E1,3.3366385E0,6.1360855E0,5.836115E0,9.046047E0,0E0,0E0,0E0,0E0,0E0,0E0,0E0,0E0],"parents":[2147483647,0,0,1,1,2,2,3,3,4,4,5,5,6,6],"right_children":[2,4,6,8,10,12,14,-1,-1,-1,-1,-1,-1,-1,-1],"split_conditions":[-3.681021E-3,1.7764416E9,5.7695265E-4,1.9E1,6.935898E2,1.5E1,3E1,8.610408E-2,-2.432297E-2,-4.9836103E-2,5.8497317E-2,4.3718405E-2,-3.173905E-2,-2.9639812E-2,2.476188E-2],"split_indices":[22,115,4,119,109,118,119,0,0,0,0,0,0,0,0],"split_type":[0,0,0,0,0,0,0,0,0,0,0,0,0,0,0],"sum_hessian":[1.3517343E2,3.8252205E1,9.6921234E1,2.346761E0,3.5905445E1,5.186342E1,4.505781E1,1.1733805E0,1.1733805E0,3.4732063E1,1.1733805E0,4.8577953E1,3.2854655E0,2.839581E1,1.6662004E1],"tree_param":{"num_deleted":"0","num_feature":"121","num_nodes":"15","size_leaf_vector":"1"}},{"base_weights":[3.3411648E-2,-4.745814E-1,2.319839E-1,7.5495625E-1,-6.0507786E-1,6.063516E-1,-7.775924E-2,9.004128E-2,-1.3274976E-2,1.9476827E-2,-4.6597395E-2,2.2167029E-2,6.706809E-2,-3.397229E-2,1.9745836E-2],"categories":[],"categories_nodes":[],"categories_segments":[],"categories_sizes":[],"default_left":[0,0,0,0,0,1,0,0,0,0,0,0,0,0,0],"id":1,"left_children":[1,3,5,7,9,11,13,-1,-1,-1,-1,-1,-1,-1,-1],"loss_changes":[1.3512899E1,6.5008583E0,1.1202105E1,3.2871485E0,5.7718534E0,4.8781166E0,1.0824051E1,0E0,0E0,0E0,0E0,0E0,0E0,0E0,0E0],"parents":[2147483647,0,0,1,1,2,2,3,3,4,4,5,5,6,6],"right_children":[2,4,6,8,10,12,14,-1,-1,-1,-1,-1,-1,-1,-1],"split_conditions":[-3.681021E-3,1.7764436E9,2.452473E-5,2.5E1,3.4422E1,2.513E2,5.3258914E-1,9.004128E-2,-1.3274976E-2,1.9476827E-2,-4.6597395E-2,2.2167029E-2,6.706809E-2,-3.397229E-2,1.9745836E-2],"split_indices":[22,115,4,119,67,1,45,0,0,0,0,0,0,0,0],"split_type":[0,0,0,0,0,0,0,0,0,0,0,0,0,0,0],"sum_hessian":[1.3186766E2,3.6669292E1,9.519837E1,3.0593016E0,3.3609993E1,4.266916E1,5.2529217E1,1.4297996E0,1.629502E0,5.0966053E0,2.8513388E1,3.0338753E1,1.2330406E1,2.3693125E1,2.8836092E1],"tree_param":{"num_deleted":"0","num_feature":"121","num_nodes":"15","size_leaf_vector":"1"}},{"base_weights":[-8.873049E-2,-6.5922153E-1,1.3413616E-1,4.6495947E-1,-7.9234374E-1,1.307261E0,-1.3167876E-2,4.9837973E-2,-2.1537261E-2,4.13482E-2,-5.257542E-2,9.428596E-2,8.759281E-3,-4.7078393E-2,1.254358E-2],"categories":[],"categories_nodes":[],"categories_segments":[],"categories_sizes":[],"default_left":[0,0,0,0,0,0,0,0,0,0,0,0,0,0,0],"id":2,"left_children":[1,3,5,7,9,11,13,-1,-1,-1,-1,-1,-1,-1,-1],"loss_changes":[1.7412098E1,6.121788E0,1.7091885E1,1.7143974E0,4.923088E0,3.15518E0,1.5383917E1,0E0,0E0,0E0,0E0,0E0,0E0,0E0,0E0],"parents":[2147483647,0,0,1,1,2,2,3,3,4,4,5,5,6,6],"right_children":[2,4,6,8,10,12,14,-1,-1,-1,-1,-1,-1,-1,-1],"split_conditions":[-3.681021E-3,5.242538E-1,-1.1867698E-3,3.4422E1,1.7764411E9,5.3549916E-1,6.840296E1,4.9837973E-2,-2.1537261E-2,4.13482E-2,-5.257542E-2,9.428596E-2,8.759281E-3,-4.7078393E-2,1.254358E-2],"split_indices":[22,45,4,67,115,45,109,0,0,0,0,0,0,0,0],"split_type":[0,0,0,0,0,0,0,0,0,0,0,0,0,0,0],"sum_hessian":[1.3525299E2,3.7444683E1,9.780831E1,3.7006838E0,3.3743996E1,1.0032802E1,8.777551E1,2.5574632E0,1.1432208E0,1.4222263E0,3.232177E1,7.8857226E0,2.147079E0,1.9063835E1,6.871168E1],"tree_param":{"num_deleted":"0","num_feature":"121","num_nodes":"15","size_leaf_vector":"1"}},{"base_weights":[1.5353807E-2,-4.2762908E-1,2.602436E-1,-6.4760154E-1,1.3541758E0,1.0596704E-1,1.827391E-1,5.789151E-2,-4.446317E-2,-1.0122765E-3,1.02968425E-1,-1.4176327E-2,2.377951E-2],"categories":[],"categories_nodes":[],"categories_segments":[],"categories_sizes":[],"default_left":[0,0,0,0,0,0,0,0,0,0,0,0,0],"id":3,"left_children":[1,3,5,7,9,-1,11,-1,-1,-1,-1,-1,-1],"loss_changes":[1.5232631E1,2.0475445E1,1.0226582E1,7.5237026E0,2.916377E0,0E0,7.8867416E0,0E0,0E0,0E0,0E0,0E0,0E0],"parents":[2147483647,0,0,1,1,2,2,3,3,4,4,6,6],"right_children":[2,4,6,8,10,-1,12,-1,-1,-1,-1,-1,-1],"split_conditions":[6.9071606E2,7.140226E-3,9.699571E2,3.5196E1,6.65782E-1,1.0596704E-1,5.2721274E-1,5.789151E-2,-4.446317E-2,-1.0122765E-3,1.02968425E-1,-1.4176327E-2,2.377951E-2],"split_indices":[109,42,109,67,109,0,45,0,0,0,0,0,0],"split_type":[0,0,0,0,0,0,0,0,0,0,0,0,0],"sum_hessian":[1.3839035E2,4.9002743E1,8.938761E1,4.4184498E1,4.818244E0,3.308957E0,8.607866E1,1.909648E0,4.227485E1,1.2054896E0,3.6127546E0,2.9027182E1,5.7051476E1],"tree_param":{"num_deleted":"0","num_feature":"121","num_nodes":"13","size_leaf_vector":"1"}},{"base_weights":[5.65286E-2,-4.8829398E-1,2.5882927E-1,4.3593355E-2,-7.410596E-1,6.3688946E-1,-1.4133759E-1,3.167547E-2,-2.002103E-2,2.8694456E-2,-5.0844032E-2,8.209928E-3,5.636324E-2,3.6718376E-2,-1.9164393E-2],"categories":[],"categories_nodes":[],"categories_segments":[],"categories_sizes":[],"default_left":[0,0,0,0,0,0,0,0,0,0,0,0,0,0,0],"id":4,"left_children":[1,3,5,7,9,11,13,-1,-1,-1,-1,-1,-1,-1,-1],"loss_changes":[1.5072174E1,5.0152674E0,1.5148886E1,2.5304263E0,3.670107E0,7.641184E0,6.7917E0,0E0,0E0,0E0,0E0,0E0,0E0,0E0,0E0],"parents":[2147483647,0,0,1,1,2,2,3,3,4,4,5,5,6,6],"right_children":[2,4,6,8,10,12,14,-1,-1,-1,-1,-1,-1,-1,-1],"split_conditions":[-3.681021E-3,3.456E1,-2.3907633E-4,1.4524E2,1.7764416E9,1.8E1,-5.592989E-4,3.167547E-2,-2.002103E-2,2.8694456E-2,-5.0844032E-2,8.209928E-3,5.636324E-2,3.6718376E-2,-1.9164393E-2],"split_indices":[22,67,42,1,115,119,4,0,0,0,0,0,0,0,0],"split_type":[0,0,0,0,0,0,0,0,0,0,0,0,0,0,0],"sum_hessian":[1.3460211E2,3.60638E1,9.8538315E1,1.1884058E1,2.4179743E1,5.0364536E1,4.8173782E1,5.028894E0,6.855164E0,1.6591184E0,2.2520624E1,1.9530737E1,3.0833797E1,8.744396E0,3.9429386E1],"tree_param":{"num_deleted":"0","num_feature":"121","num_nodes":"15","size_leaf_vector":"1"}},{"base_weights":[-6.0977455E-2,-4.8908144E-1,1.1523473E-1,2.7853256E-2,-7.235694E-1,3.9155343E-1,-1.8755883E-1,-1.3843206E-2,6.5261014E-2,-2.0137789E-2,-6.830176E-2,3.579224E-2,9.991566E-4,-5.3047616E-2,3.7040666E-4],"categories":[],"categories_nodes":[],"categories_segments":[],"categories_sizes":[],"default_left":[0,0,0,0,0,0,1,0,0,0,0,0,0,0,0],"id":5,"left_children":[1,3,5,7,9,11,13,-1,-1,-1,-1,-1,-1,-1,-1],"loss_changes":[1.0482842E1,4.9284496E0,8.33324E0,3.9776633E0,4.106408E0,3.981686E0,6.4533134E0,0E0,0E0,0E0,0E0,0E0,0E0,0E0,0E0],"parents":[2147483647,0,0,1,1,2,2,3,3,4,4,5,5,6,6],"right_children":[2,4,6,8,10,12,14,-1,-1,-1,-1,-1,-1,-1,-1],"split_conditions":[-3.681021E-3,3.456E1,5.7695265E-4,3.45E1,1.2E1,4.383856E-4,5.283E1,-1.3843206E-2,6.5261014E-2,-2.0137789E-2,-6.830176E-2,3.579224E-2,9.991566E-4,-5.3047616E-2,3.7040666E-4],"split_indices":[22,67,4,67,118,42,1,0,0,0,0,0,0,0,0],"split_type":[0,0,0,0,0,0,0,0,0,0,0,0,0,0,0],"sum_hessian":[1.3721419E2,3.9492477E1,9.772171E1,1.2598964E1,2.6893515E1,5.0941326E1,4.6780388E1,1.0756852E1,1.8421111E0,1.4831424E1,1.2062092E1,3.2551826E1,1.83895E1,9.404102E0,3.7376286E1],"tree_param":{"num_deleted":"0","num_feature":"121","num_nodes":"15","size_leaf_vector":"1"}},{"base_weights":[2.7228914E-2,7.546356E-1,-8.710395E-2,2.3256993E-1,1.3961846E0,-7.8119653E-1,1.1646855E-1,-4.382119E-2,3.1323362E-2,2.669048E-2,1.03957936E-1,-7.42309E-2,-1.9295977E-2,-4.4848036E-2,1.3886901E-2],"categories":[],"categories_nodes":[],"categories_segments":[],"categories_sizes":[],"default_left":[0,0,0,0,0,0,1,0,0,0,0,0,0,0,0],"id":6,"left_children":[1,3,5,7,9,11,13,-1,-1,-1,-1,-1,-1,-1,-1],"loss_changes":[1.1362433E1,5.8894253E0,1.6803574E1,3.567202E0,1.8296623E0,5.250656E0,9.344206E0,0E0,0E0,0E0,0E0,0E0,0E0,0E0,0E0],"parents":[2147483647,0,0,1,1,2,2,3,3,4,4,5,5,6,6],"right_children":[2,4,6,8,10,12,14,-1,-1,-1,-1,-1,-1,-1,-1],"split_conditions":[-9.267035E-4,9.7E-1,1.9790289E0,8.195E1,4.9E-2,2E0,1.906E1,-4.382119E-2,3.1323362E-2,2.669048E-2,1.03957936E-1,-7.42309E-2,-1.9295977E-2,-4.4848036E-2,1.3886901E-2],"split_indices":[4,90,109,1,92,112,1,0,0,0,0,0,0,0,0],"split_type":[0,0,0,0,0,0,0,0,0,0,0,0,0,0,0],"sum_hessian":[1.3483238E2,1.7553493E1,1.1727889E2,1.0429179E1,7.124315E0,2.5953035E1,9.132586E1,2.0586207E0,8.370559E0,2.467985E0,4.65633E0,1.2178425E1,1.377461E1,1.0080687E1,8.124517E1],"tree_param":{"num_deleted":"0","num_feature":"121","num_nodes":"15","size_leaf_vector":"1"}},{"base_weights":[9.807127E-2,2.2746557E-1,-6.90394E-1,1.2099767E-2,6.23313E-1,-1.0684634E0,4.2408398E-1,-4.049704E-2,5.030626E-3,4.7296852E-2,-1.5141057E-2,5.394758E-3,-7.0371136E-2,5.3099763E-2,-3.0034307E-2],"categories":[],"categories_nodes":[],"categories_segments":[],"categories_sizes":[],"default_left":[0,0,0,0,0,0,0,0,0,0,0,0,0,0,0],"id":7,"left_children":[1,3,5,7,9,11,13,-1,-1,-1,-1,-1,-1,-1,-1],"loss_changes":[1.3982975E1,9.981062E0,8.607222E0,3.8471835E0,6.159836E0,1.8871613E0,2.8372698E0,0E0,0E0,0E0,0E0,0E0,0E0,0E0,0E0],"parents":[2147483647,0,0,1,1,2,2,3,3,4,4,5,5,6,6],"right_children":[2,4,6,8,10,12,14,-1,-1,-1,-1,-1,-1,-1,-1],"split_conditions":[9.94E-1,3.1E1,3.5622E1,1.7764472E9,4.058E0,3.34E0,4.854E0,-4.049704E-2,5.030626E-3,4.7296852E-2,-1.5141057E-2,5.394758E-3,-7.0371136E-2,5.3099763E-2,-3.0034307E-2],"split_indices":[90,119,67,115,110,110,110,0,0,0,0,0,0,0,0],"split_type":[0,0,0,0,0,0,0,0,0,0,0,0,0,0,0],"sum_hessian":[1.3451793E2,1.1616561E2,1.8352324E1,7.590118E1,4.026443E1,1.3734421E1,4.6179023E0,6.3815017E0,6.951968E1,3.3965416E1,6.299015E0,1.1468451E0,1.2587575E1,3.1103706E0,1.5075315E0],"tree_param":{"num_deleted":"0","num_feature":"121","num_nodes":"15","size_leaf_vector":"1"}},{"base_weights":[-6.889213E-4,-4.784817E-1,1.7091587E-1,3.1451645E-1,-6.414777E-1,4.870949E-1,-1.04458265E-1,-4.2390335E-2,5.7164375E-2,-2.1791527E-2,-6.6438034E-2,-3.899531E-2,3.2601744E-2,6.772439E-3,-4.574008E-2],"categories":[],"categories_nodes":[],"categories_segments":[],"categories_sizes":[],"default_left":[0,0,0,0,0,1,0,0,0,0,0,0,0,0,0],"id":8,"left_children":[1,3,5,7,9,11,13,-1,-1,-1,-1,-1,-1,-1,-1],"loss_changes":[1.1170975E1,4.855316E0,8.778987E0,5.1104207E0,3.511856E0,3.349945E0,7.8645325E0,0E0,0E0,0E0,0E0,0E0,0E0,0E0,0E0],"parents":[2147483647,0,0,1,1,2,2,3,3,4,4,5,5,6,6],"right_children":[2,4,6,8,10,12,14,-1,-1,-1,-1,-1,-1,-1,-1],"split_conditions":[-3.681021E-3,-6.9829205E-4,7.730227E-5,1.1334E2,-2.917325E-3,6.9E0,1.61E-1,-4.2390335E-2,5.7164375E-2,-2.1791527E-2,-6.6438034E-2,-3.899531E-2,3.2601744E-2,6.772439E-3,-4.574008E-2],"split_indices":[22,4,4,1,42,1,86,0,0,0,0,0,0,0,0],"split_type":[0,0,0,0,0,0,0,0,0,0,0,0,0,0,0],"sum_hessian":[1.3424805E2,3.5002796E1,9.924525E1,5.8094444E0,2.919335E1,4.5841785E1,5.3403465E1,2.1934307E0,3.6160135E0,1.9389574E1,9.803777E0,1.6641036E0,4.417768E1,4.0765E1,1.2638463E1],"tree_param":{"num_deleted":"0","num_feature":"121","num_nodes":"15","size_leaf_vector":"1"}},{"base_weights":[-2.6674956E-2,1.312565E-1,-5.2154255E-1,-1.06098294E-1,4.7323206E-1,5.609185E-1,-7.974555E-1,4.4746537E-2,-1.7407479E-2,5.3965855E-2,7.7168457E-3,-9.137636E-3,8.4920496E-2,-5.642377E-2,-3.9808145E-3],"categories":[],"categories_nodes":[],"categories_segments":[],"categories_sizes":[],"default_left":[0,0,0,0,0,0,0,0,0,0,0,0,0,0,0],"id":9,"left_children":[1,3,5,7,9,11,13,-1,-1,-1,-1,-1,-1,-1,-1],"loss_changes":[1.0586759E1,8.396207E0,1.02317295E1,9.859437E0,6.098604E0,4.62834E0,2.708994E0,0E0,0E0,0E0,0E0,0E0,0E0,0E0,0E0],"parents":[2147483647,0,0,1,1,2,2,3,3,4,4,5,5,6,6],"right_children":[2,4,6,8,10,12,14,-1,-1,-1,-1,-1,-1,-1,-1],"split_conditions":[3.905E0,5.3265065E-1,-6.9829205E-4,1E1,5.3471124E-1,1.5719E2,3.5598E1,4.4746537E-2,-1.7407479E-2,5.3965855E-2,7.7168457E-3,-9.137636E-3,8.4920496E-2,-5.642377E-2,-3.9808145E-3],"split_indices":[110,45,4,118,45,1,67,0,0,0,0,0,0,0,0],"split_type":[0,0,0,0,0,0,0,0,0,0,0,0,0,0,0],"sum_hessian":[1.3358232E2,1.018218E2,3.1760525E1,6.051201E1,4.130979E1,6.241384E0,2.551914E1,1.02076E1,5.030441E1,1.7749071E1,2.356072E1,3.8496907E0,2.3916936E0,2.1106335E1,4.4128056E0],"tree_param":{"num_deleted":"0","num_feature":"121","num_nodes":"15","size_leaf_vector":"1"}},{"base_weights":[-2.7269803E-2,-2.2864395E-1,2.6383972E-1,6.891821E-2,-5.193501E-1,4.754935E-1,-5.0733155E-1,2.3004925E-2,-3.657731E-2,4.3708056E-2,-3.570144E-2,-2.5973571E-2,3.7213452E-2,5.8995034E-3,-5.312937E-2],"categories":[],"categories_nodes":[],"categories_segments":[],"categories_sizes":[],"default_left":[0,0,0,0,0,0,0,0,0,0,0,0,0,0,0],"id":10,"left_children":[1,3,5,7,9,11,13,-1,-1,-1,-1,-1,-1,-1,-1],"loss_changes":[8.228075E0,7.20638E0,9.6159E0,9.163796E0,4.4038525E0,6.2613096E0,3.030755E0,0E0,0E0,0E0,0E0,0E0,0E0,0E0,0E0],"parents":[2147483647,0,0,1,1,2,2,3,3,4,4,5,5,6,6],"right_children":[2,4,6,8,10,12,14,-1,-1,-1,-1,-1,-1,-1,-1],"split_conditions":[2.8E1,9.764348E-5,4.116E0,1.7768676E9,3.438972E1,-9.5366575E-3,9.88E-1,2.3004925E-2,-3.657731E-2,4.3708056E-2,-3.570144E-2,-2.5973571E-2,3.7213452E-2,5.8995034E-3,-5.312937E-2],"split_indices":[119,4,110,115,67,22,90,0,0,0,0,0,0,0,0],"split_type":[0,0,0,0,0,0,0,0,0,0,0,0,0,0,0],"sum_hessian":[1.3832925E2,8.1893936E1,5.6435314E1,4.084677E1,4.104717E1,4.4582676E1,1.1852638E1,2.8207697E1,1.2639073E1,1.8537366E0,3.919343E1,5.853405E0,3.872927E1,4.8403454E0,7.012293E0],"tree_param":{"num_deleted":"0","num_feature":"121","num_nodes":"15","size_leaf_vector":"1"}},{"base_weights":[-4.2597033E-2,-1.691344E-1,3.5192278E-1,6.949781E-1,-2.7104327E-1,-5.6756817E-2,5.191799E-1,6.499636E-3,9.366206E-2,-3.7819583E-2,-2.1175093E-3,4.3222085E-2,-1.6808836E-2],"categories":[],"categories_nodes":[],"categories_segments":[],"categories_sizes":[],"default_left":[0,0,0,1,0,0,0,0,0,0,0,0,0],"id":11,"left_children":[1,3,5,7,9,-1,11,-1,-1,-1,-1,-1,-1],"loss_changes":[6.526829E0,8.885613E0,7.39102E0,5.267042E0,7.521663E0,0E0,4.8336754E0,0E0,0E0,0E0,0E0,0E0,0E0],"parents":[2147483647,0,0,1,1,2,2,3,3,4,4,6,6],"right_children":[2,4,6,8,10,-1,12,-1,-1,-1,-1,-1,-1],"split_conditions":[1.4E1,-1.1867698E-3,4E0,7.7307296E-1,6.9071606E2,-5.6756817E-2,1.7767965E9,6.499636E-3,9.366206E-2,-3.7819583E-2,-2.1175093E-3,4.3222085E-2,-1.6808836E-2],"split_indices":[118,4,119,109,109,0,115,0,0,0,0,0,0],"split_type":[0,0,0,0,0,0,0,0,0,0,0,0,0],"sum_hessian":[1.2854953E2,9.776417E1,3.0785362E1,9.699544E0,8.806463E1,2.9829373E0,2.7802425E1,6.453286E0,3.246258E0,3.422791E1,5.383672E1,2.2290707E1,5.5117197E0],"tree_param":{"num_deleted":"0","num_feature":"121","num_nodes":"13","size_leaf_vector":"1"}},{"base_weights":[-3.5179788E-4,-4.4337806E-1,1.453823E-1,5.6020516E-1,-6.885651E-1,-9.0222824E-1,2.1883054E-1,-2.0791657E-2,6.2154822E-2,-6.632624E-2,-1.4192848E-2,2.8762033E-2,-7.6214954E-2,1.594859E-2,-5.640082E-2],"categories":[],"categories_nodes":[],"categories_segments":[],"categories_sizes":[],"default_left":[0,0,1,0,0,0,1,0,0,0,0,0,0,0,0],"id":12,"left_children":[1,3,5,7,9,11,13,-1,-1,-1,-1,-1,-1,-1,-1],"loss_changes":[8.8209E0,8.707077E0,8.107902E0,3.4608414E0,4.9442415E0,4.1329045E0,5.523947E0,0E0,0E0,0E0,0E0,0E0,0E0,0E0,0E0],"parents":[2147483647,0,0,1,1,2,2,3,3,4,4,5,5,6,6],"right_children":[2,4,6,8,10,12,14,-1,-1,-1,-1,-1,-1,-1,-1],"split_conditions":[1.9790289E0,-9.267035E-4,1.279E1,6.1E-2,2E0,1.1E1,1.2527225E3,-2.0791657E-2,6.2154822E-2,-6.632624E-2,-1.4192848E-2,2.8762033E-2,-7.6214954E-2,1.594859E-2,-5.640082E-2],"split_indices":[109,4,1,92,112,118,109,0,0,0,0,0,0,0,0],"split_type":[0,0,0,0,0,0,0,0,0,0,0,0,0,0,0],"sum_hessian":[1.3462413E2,3.2817566E1,1.01806564E2,6.1912293E0,2.6626337E1,5.9307623E0,9.58758E1,2.223893E0,3.9673367E0,1.309965E1,1.3526687E1,1.1838588E0,4.7469034E0,9.288105E1,2.9947524E0],"tree_param":{"num_deleted":"0","num_feature":"121","num_nodes":"15","size_leaf_vector":"1"}},{"base_weights":[4.5790177E-2,1.6903515E-1,-5.032689E-1,4.540569E-1,-1.361972E-1,-7.282644E-1,6.855423E-1,-1.9369818E-2,3.2986537E-2,-4.7786994E-4,-6.050831E-2,-1.03946235E-2,-5.5231567E-2,-1.478999E-2,7.415113E-2],"categories":[],"categories_nodes":[],"categories_segments":[],"categories_sizes":[],"default_left":[0,0,1,0,0,0,0,0,0,0,0,0,0,0,0],"id":13,"left_children":[1,3,5,7,9,11,13,-1,-1,-1,-1,-1,-1,-1,-1],"loss_changes":[8.97147E0,9.457347E0,7.0056434E0,4.3476057E0,5.9111557E0,2.0748873E0,2.5543883E0,0E0,0E0,0E0,0E0,0E0,0E0,0E0,0E0],"parents":[2147483647,0,0,1,1,2,2,3,3,4,4,5,5,6,6],"right_children":[2,4,6,8,10,12,14,-1,-1,-1,-1,-1,-1,-1,-1],"split_conditions":[1.7768676E9,5.7695265E-4,6.917381E2,3.4476E1,1E1,9.85E-1,2E0,-1.9369818E-2,3.2986537E-2,-4.7786994E-4,-6.050831E-2,-1.03946235E-2,-5.5231567E-2,-1.478999E-2,7.415113E-2],"split_indices":[115,4,109,67,112,90,112,0,0,0,0,0,0,0,0],"split_type":[0,0,0,0,0,0,0,0,0,0,0,0,0,0,0],"sum_hessian":[1.30322E2,1.0699698E2,2.3325024E1,5.507817E1,5.191881E1,1.9938791E1,3.3862321E0,5.7814183E0,4.9296753E1,4.614429E1,5.7745204E0,5.61899E0,1.43198E1,1.4620596E0,1.9241724E0],"tree_param":{"num_deleted":"0","num_feature":"121","num_nodes":"15","size_leaf_vector":"1"}},{"base_weights":[5.0989147E-2,9.4663954E-1,-5.4856878E-2,1.7202812E-1,1.2368497E0,4.4198242E-1,-1.5868503E-1,3.325803E-2,-3.249319E-2,9.399966E-2,1.601346E-2,-7.910525E-3,6.868284E-2,-3.5448153E-2,5.716267E-4],"categories":[],"categories_nodes":[],"categories_segments":[],"categories_sizes":[],"default_left":[0,0,0,0,0,1,0,0,0,0,0,0,0,0,0],"id":14,"left_children":[1,3,5,7,9,11,13,-1,-1,-1,-1,-1,-1,-1,-1],"loss_changes":[1.2432032E1,2.9021902E0,6.14354E0,1.6472043E0,2.754837E0,8.463814E0,7.137629E0,0E0,0E0,0E0,0E0,0E0,0E0,0E0,0E0],"parents":[2147483647,0,0,1,1,2,2,3,3,4,4,5,5,6,6],"right_children":[2,4,6,8,10,12,14,-1,-1,-1,-1,-1,-1,-1,-1],"split_conditions":[1E1,1E1,-8.3258224E-4,7E0,3.5298E1,4.7705412E-1,6.840296E1,3.325803E-2,-3.249319E-2,9.399966E-2,1.601346E-2,-7.910525E-3,6.868284E-2,-3.5448153E-2,5.716267E-4],"split_indices":[118,119,4,119,67,109,109,0,0,0,0,0,0,0,0],"split_type":[0,0,0,0,0,0,0,0,0,0,0,0,0,0,0],"sum_hessian":[1.2959038E2,1.2856593E1,1.1673378E2,3.9380794E0,8.918514E0,1.961501E1,9.711877E1,2.709687E0,1.2283921E0,6.1963944E0,2.7221196E0,1.1245082E1,8.369928E0,2.6508709E1,7.061006E1],"tree_param":{"num_deleted":"0","num_feature":"121","num_nodes":"15","size_leaf_vector":"1"}},{"base_weights":[-1.7705927E-2,4.933283E-1,-1.0651819E-1,1.9704054E-1,1.1061263E0,-7.186352E-1,7.169163E-2,4.853965E-2,-6.2315487E-3,2.1608936E-2,8.597039E-2,-6.612671E-2,-2.048554E-2,-6.184791E-2,9.891753E-3],"categories":[],"categories_nodes":[],"categories_segments":[],"categories_sizes":[],"default_left":[0,0,0,0,0,0,1,0,0,0,0,0,0,0,0],"id":15,"left_children":[1,3,5,7,9,11,13,-1,-1,-1,-1,-1,-1,-1,-1],"loss_changes":[6.0417795E0,3.3617058E0,1.2405006E1,2.755233E0,9.972105E-1,3.3306046E0,9.27296E0,0E0,0E0,0E0,0E0,0E0,0E0,0E0,0E0],"parents":[2147483647,0,0,1,1,2,2,3,3,4,4,5,5,6,6],"right_children":[2,4,6,8,10,12,14,-1,-1,-1,-1,-1,-1,-1,-1],"split_conditions":[-9.267035E-4,6.1E-2,1.9790289E0,1.3E1,-2.0213204E-3,2E0,1.2955E1,4.853965E-2,-6.2315487E-3,2.1608936E-2,8.597039E-2,-6.612671E-2,-2.048554E-2,-6.184791E-2,9.891753E-3],"split_indices":[4,92,109,119,4,112,1,0,0,0,0,0,0,0,0],"split_type":[0,0,0,0,0,0,0,0,0,0,0,0,0,0,0],"sum_hessian":[1.3096178E2,1.8715614E1,1.1224616E2,1.350668E1,5.208935E0,2.462645E1,8.761971E1,3.895545E0,9.611135E0,2.2268214E0,2.9821134E0,1.1258819E1,1.336763E1,6.043504E0,8.157621E1],"tree_param":{"num_deleted":"0","num_feature":"121","num_nodes":"15","size_leaf_vector":"1"}},{"base_weights":[2.0517245E-2,6.1638128E-2,-7.007281E-2,-7.016955E-2,4.6926796E-1,-1.67801E-2,1.5905572E-2,-4.853121E-2,3.6005702E-2],"categories":[],"categories_nodes":[],"categories_segments":[],"categories_sizes":[],"default_left":[1,0,0,0,0,0,0,0,0],"id":16,"left_children":[1,3,-1,5,7,-1,-1,-1,-1],"loss_changes":[6.3456454E0,6.75096E0,0E0,6.7715487E0,5.6157737E0,0E0,0E0,0E0,0E0],"parents":[2147483647,0,0,1,1,3,3,4,4],"right_children":[2,4,-1,6,8,-1,-1,-1,-1],"split_conditions":[1.2527225E3,1.4E1,-7.007281E-2,3E1,4E0,-1.67801E-2,1.5905572E-2,-4.853121E-2,3.6005702E-2],"split_indices":[109,118,0,119,119,0,0,0,0],"split_type":[0,0,0,0,0,0,0,0,0],"sum_hessian":[1.27379845E2,1.2403609E2,3.3437583E0,9.435434E1,2.9681747E1,5.8170547E1,3.6183792E1,2.2748525E0,2.7406895E1],"tree_param":{"num_deleted":"0","num_feature":"121","num_nodes":"9","size_leaf_vector":"1"}},{"base_weights":[-1.5505952E-2,7.409729E-2,-6.250327E-1,-3.2078028E-2,5.635492E-1,3.2220904E-2,-8.2524645E-1,5.6738006E-3,-3.969175E-2,-5.3903665E-2,4.4349674E-2,-6.0832534E-2,1.7567871E-2],"categories":[],"categories_nodes":[],"categories_segments":[],"categories_sizes":[],"default_left":[0,0,0,0,0,0,0,0,0,0,0,0,0],"id":17,"left_children":[1,3,5,7,9,-1,11,-1,-1,-1,-1,-1,-1],"loss_changes":[7.1619534E0,5.9674444E0,4.3527384E0,7.637097E0,5.9171596E0,0E0,3.4030285E0,0E0,0E0,0E0,0E0,0E0,0E0],"parents":[2147483647,0,0,1,1,2,2,3,3,4,4,6,6],"right_children":[2,4,6,8,10,-1,12,-1,-1,-1,-1,-1,-1],"split_conditions":[9.95E-1,6.3E-2,3.3272E0,3.3232E0,4.675219E-1,3.2220904E-2,3.3337E2,5.6738006E-3,-3.969175E-2,-5.3903665E-2,4.4349674E-2,-6.0832534E-2,1.7567871E-2],"split_indices":[90,99,110,110,109,0,1,0,0,0,0,0,0],"split_type":[0,0,0,0,0,0,0,0,0,0,0,0,0],"sum_hessian":[1.2928592E2,1.1348198E2,1.5803939E1,9.40208E1,1.9461184E1,2.075493E0,1.3728446E1,7.898026E1,1.5040534E1,1.6456454E0,1.7815538E1,1.1826351E1,1.902095E0],"tree_param":{"num_deleted":"0","num_feature":"121","num_nodes":"13","size_leaf_vector":"1"}},{"base_weights":[5.2445304E-2,2.7505746E-1,-1.5860698E-1,6.698164E-2,7.3574185E-1,7.566986E-1,-3.099408E-1,-1.8993352E-2,1.2450238E-2,5.0031226E-2,-1.8427828E-2,-2.948723E-2,6.427269E-2,-2.7865132E-2,4.1830935E-2],"categories":[],"categories_nodes":[],"categories_segments":[],"categories_sizes":[],"default_left":[0,0,0,0,0,0,0,0,0,0,0,0,0,0,0],"id":18,"left_children":[1,3,5,7,9,11,13,-1,-1,-1,-1,-1,-1,-1,-1],"loss_changes":[6.3391566E0,6.2368536E0,9.8501425E0,2.559677E0,2.3335285E0,4.506852E0,9.701872E0,0E0,0E0,0E0,0E0,0E0,0E0,0E0,0E0],"parents":[2147483647,0,0,1,1,2,2,3,3,4,4,5,5,6,6],"right_children":[2,4,6,8,10,12,14,-1,-1,-1,-1,-1,-1,-1,-1],"split_conditions":[1.776779E9,-1.1898197E-3,-9.267035E-4,1.2E1,4.1749E2,4.3E-2,4.2E1,-1.8993352E-2,1.2450238E-2,5.0031226E-2,-1.8427828E-2,-2.948723E-2,6.427269E-2,-2.7865132E-2,4.1830935E-2],"split_indices":[115,22,4,119,1,99,119,0,0,0,0,0,0,0,0],"split_type":[0,0,0,0,0,0,0,0,0,0,0,0,0,0,0],"sum_hessian":[1.3299649E2,6.4578064E1,6.8418434E1,4.527448E1,1.9303581E1,9.1396E0,5.9278835E1,1.1804075E1,3.3470406E1,1.782688E1,1.4767011E0,1.726269E0,7.413331E0,5.1862713E1,7.4161243E0],"tree_param":{"num_deleted":"0","num_feature":"121","num_nodes":"15","size_leaf_vector":"1"}},{"base_weights":[6.523628E-2,7.178819E-1,-2.6269661E-2,9.255002E-1,-1.387585E-1,-6.7890696E-2,1.8242596E-2,6.714324E-2,-2.308064E-4,4.389755E-2,-4.820817E-2,6.0050245E-3,-3.0049866E-2],"categories":[],"categories_nodes":[],"categories_segments":[],"categories_sizes":[],"default_left":[0,0,1,0,0,0,0,0,0,0,0,0,0],"id":19,"left_children":[1,3,5,7,9,-1,11,-1,-1,-1,-1,-1,-1],"loss_changes":[7.6982956E0,2.9469557E0,5.6163473E0,2.3222656E0,2.879595E0,0E0,4.736776E0,0E0,0E0,0E0,0E0,0E0,0E0],"parents":[2147483647,0,0,1,1,2,2,3,3,4,4,6,6],"right_children":[2,4,6,8,10,-1,12,-1,-1,-1,-1,-1,-1],"split_conditions":[1E1,8.073106E-4,6.9E0,3.5298E1,1.2797E2,-6.7890696E-2,9.95E-1,6.714324E-2,-2.308064E-4,4.389755E-2,-4.820817E-2,6.0050245E-3,-3.0049866E-2],"split_indices":[118,22,1,67,1,0,90,0,0,0,0,0,0],"split_type":[0,0,0,0,0,0,0,0,0,0,0,0,0],"sum_hessian":[1.2758866E2,1.4847439E1,1.1274123E2,1.188626E1,2.9611783E0,3.419311E0,1.09321915E2,9.668489E0,2.2177713E0,1.2386286E0,1.7225497E0,9.513015E1,1.4191763E1],"tree_param":{"num_deleted":"0","num_feature":"121","num_nodes":"13","size_leaf_vector":"1"}},{"base_weights":[8.577807E-3,-2.1292433E-1,1.5748131E-1,6.44386E-2,-4.620617E-1,-2.609476E-1,3.095662E-1,2.91848E-2,-1.537369E-2,-4.1509297E-2,2.4003475E-3,-3.506578E-2,7.0083854E-3,2.8227398E-2,-2.2401147E-2],"categories":[],"categories_nodes":[],"categories_segments":[],"categories_sizes":[],"default_left":[0,0,0,0,0,0,0,0,0,0,0,0,0,0,0],"id":20,"left_children":[1,3,5,7,9,11,13,-1,-1,-1,-1,-1,-1,-1,-1],"loss_changes":[4.4204006E0,3.7539158E0,5.1788692E0,3.6941829E0,3.3168993E0,2.7442007E0,6.681768E0,0E0,0E0,0E0,0E0,0E0,0E0,0E0,0E0],"parents":[2147483647,0,0,1,1,2,2,3,3,4,4,5,5,6,6],"right_children":[2,4,6,8,10,12,14,-1,-1,-1,-1,-1,-1,-1,-1],"split_conditions":[1.8E1,4.6890833E-5,-3.7392974E-3,8E0,2.427178E-3,7.730227E-5,2.7777206E-3,2.91848E-2,-1.537369E-2,-4.1509297E-2,2.4003475E-3,-3.506578E-2,7.0083854E-3,2.8227398E-2,-2.2401147E-2],"split_indices":[119,4,22,119,4,4,4,0,0,0,0,0,0,0,0],"split_type":[0,0,0,0,0,0,0,0,0,0,0,0,0,0,0],"sum_hessian":[1.320062E2,5.2893806E1,7.911239E1,2.5379896E1,2.751391E1,2.0898596E1,5.8213795E1,1.0735655E1,1.4644241E1,1.8616528E1,8.897383E0,1.0963286E1,9.935309E0,4.7365864E1,1.084793E1],"tree_param":{"num_deleted":"0","num_feature":"121","num_nodes":"15","size_leaf_vector":"1"}},{"base_weights":[-1.2748985E-2,-6.256587E-2,8.48647E-1,4.2621467E-2,-6.4321154E-1,-4.7309925E-3,1.0322908E0,-9.030148E-3,1.7583322E-2,2.6025293E-2,-4.8449505E-2,7.272924E-2,1.6238056E-2],"categories":[],"categories_nodes":[],"categories_segments":[],"categories_sizes":[],"default_left":[0,0,0,0,0,0,0,0,0,0,0,0,0],"id":21,"left_children":[1,3,5,7,9,-1,11,-1,-1,-1,-1,-1,-1],"loss_changes":[5.797847E0,7.8137617E0,1.3397207E0,5.3095922E0,3.8205757E0,0E0,5.264602E-1,0E0,0E0,0E0,0E0,0E0,0E0],"parents":[2147483647,0,0,1,1,2,2,3,3,4,4,6,6],"right_children":[2,4,6,8,10,-1,12,-1,-1,-1,-1,-1,-1],"split_conditions":[5.6202007E-3,9.93E-1,4.592719E-1,2.8E1,3.2624E0,-4.7309925E-3,9.95E-1,-9.030148E-3,1.7583322E-2,2.6025293E-2,-4.8449505E-2,7.272924E-2,1.6238056E-2],"split_indices":[40,90,109,119,110,0,90,0,0,0,0,0,0],"split_type":[0,0,0,0,0,0,0,0,0,0,0,0,0],"sum_hessian":[1.3287262E2,1.2648501E2,6.387607E0,1.0787028E2,1.861473E1,1.1500242E0,5.2375827E0,6.112913E1,4.6741146E1,2.2465785E0,1.6368153E1,3.7585423E0,1.4790404E0],"tree_param":{"num_deleted":"0","num_feature":"121","num_nodes":"13","size_leaf_vector":"1"}},{"base_weights":[3.1188207E-2,8.1019364E-2,-9.4701165E-1,-4.0409505E-1,1.5177906E-1,-6.353764E-2,-1.4792377E-2,3.414155E-2,-3.9433077E-2,3.3099324E-2,2.4624987E-4],"categories":[],"categories_nodes":[],"categories_segments":[],"categories_sizes":[],"default_left":[0,0,0,0,0,0,0,0,0,0,0],"id":22,"left_children":[1,3,5,7,9,-1,-1,-1,-1,-1,-1],"loss_changes":[6.408787E0,4.335905E0,2.3887205E-1,4.3457737E0,6.458115E0,0E0,0E0,0E0,0E0,0E0,0E0],"parents":[2147483647,0,0,1,1,2,2,3,3,4,4],"right_children":[2,4,6,8,10,-1,-1,-1,-1,-1,-1],"split_conditions":[1.7768732E9,1.7764507E9,2.4551433E-4,1.7764436E9,3.530412E1,-6.353764E-2,-1.4792377E-2,3.414155E-2,-3.9433077E-2,3.3099324E-2,2.4624987E-4],"split_indices":[115,115,4,115,67,0,0,0,0,0,0],"split_type":[0,0,0,0,0,0,0,0,0,0,0],"sum_hessian":[1.2890219E2,1.2352671E2,5.375485E0,1.5124604E1,1.0840211E2,4.1935005E0,1.1819842E0,2.8644233E0,1.2260181E1,2.8498316E1,7.990379E1],"tree_param":{"num_deleted":"0","num_feature":"121","num_nodes":"11","size_leaf_vector":"1"}},{"base_weights":[-3.3621963E-2,5.79254E-1,-1.1824424E-1,7.816122E-1,-6.2295925E-2,-3.2757127E-1,1.4046556E-1,-1.9866504E-2,5.551419E-2,-4.2149715E-2,-4.7698403E-3,-4.1197676E-2,1.4100546E-2],"categories":[],"categories_nodes":[],"categories_segments":[],"categories_sizes":[],"default_left":[0,0,0,0,0,1,0,0,0,0,0,0,0],"id":23,"left_children":[1,3,5,7,-1,9,11,-1,-1,-1,-1,-1,-1],"loss_changes":[6.962339E0,6.145579E0,6.4161544E0,2.712305E0,0E0,6.019457E0,4.3298874E0,0E0,0E0,0E0,0E0,0E0,0E0],"parents":[2147483647,0,0,1,1,2,2,3,3,5,5,6,6],"right_children":[2,4,6,8,-1,10,12,-1,-1,-1,-1,-1,-1],"split_conditions":[1E1,5.329363E-1,1.3E1,3E0,-6.2295925E-2,1.1749E2,-1.006952E-2,-1.9866504E-2,5.551419E-2,-4.2149715E-2,-4.7698403E-3,-4.1197676E-2,1.4100546E-2],"split_indices":[118,45,118,119,0,1,22,0,0,0,0,0,0],"split_type":[0,0,0,0,0,0,0,0,0,0,0,0,0],"sum_hessian":[1.3192427E2,1.5296241E1,1.1662804E2,1.4054722E1,1.2415192E0,6.431962E1,5.230841E1,1.4574946E0,1.2597227E1,2.4882267E1,3.9437355E1,4.723485E0,4.7584927E1],"tree_param":{"num_deleted":"0","num_feature":"121","num_nodes":"13","size_leaf_vector":"1"}},{"base_weights":[8.890081E-3,-1.1052519E-1,3.7099528E-1,-5.0469375E-1,1.5935171E-2,5.920777E-1,-4.5512208E-1,-4.8347734E-2,8.80825E-3,-3.4676217E-2,7.7258884E-3,1.7712923E-2,7.539888E-2,1.02261E-2,-4.8073575E-2],"categories":[],"categories_nodes":[],"categories_segments":[],"categories_sizes":[],"default_left":[0,0,0,0,1,0,0,0,0,0,0,0,0,0,0],"id":24,"left_children":[1,3,5,7,9,11,13,-1,-1,-1,-1,-1,-1,-1,-1],"loss_changes":[5.7485E0,4.994193E0,6.289886E0,4.8906E0,5.2139378E0,4.8450146E0,1.7656771E0,0E0,0E0,0E0,0E0,0E0,0E0,0E0,0E0],"parents":[2147483647,0,0,1,1,2,2,3,3,4,4,5,5,6,6],"right_children":[2,4,6,8,10,12,14,-1,-1,-1,-1,-1,-1,-1,-1],"split_conditions":[1.4E1,1.9790289E0,1.7767965E9,3.558E1,5.217E1,2.7564E2,1.2172E2,-4.8347734E-2,8.80825E-3,-3.4676217E-2,7.7258884E-3,1.7712923E-2,7.539888E-2,1.02261E-2,-4.8073575E-2],"split_indices":[118,109,115,67,1,1,1,0,0,0,0,0,0,0,0],"split_type":[0,0,0,0,0,0,0,0,0,0,0,0,0,0,0],"sum_hessian":[1.3099301E2,9.902971E1,3.1963306E1,2.3327745E1,7.5701965E1,2.5438778E1,6.524528E0,1.5792235E1,7.53551E0,1.1428184E1,6.427378E1,1.8582315E1,6.8564634E0,2.5048194E0,4.019709E0],"tree_param":{"num_deleted":"0","num_feature":"121","num_nodes":"15","size_leaf_vector":"1"}},{"base_weights":[-1.4748483E-2,-1.7609851E-1,2.2136872E-1,8.1029825E-2,-4.3970722E-1,6.969453E-1,5.2100535E-2,-5.7503067E-2,9.546354E-3,-6.6271024E-3,-4.3138236E-2,5.154025E-2,-8.2948315E-4,-1.879634E-2,1.6934766E-2],"categories":[],"categories_nodes":[],"categories_segments":[],"categories_sizes":[],"default_left":[0,0,0,0,0,0,1,0,0,0,0,0,0,0,0],"id":25,"left_children":[1,3,5,7,9,11,13,-1,-1,-1,-1,-1,-1,-1,-1],"loss_changes":[5.0834317E0,5.4049244E0,4.326291E0,3.4752948E0,3.5314474E0,1.6411657E0,3.5401912E0,0E0,0E0,0E0,0E0,0E0,0E0,0E0,0E0],"parents":[2147483647,0,0,1,1,2,2,3,3,4,4,5,5,6,6],"right_children":[2,4,6,8,10,12,14,-1,-1,-1,-1,-1,-1,-1,-1],"split_conditions":[5.3265065E-1,4.6890833E-5,5.336676E-1,4.63629E-1,3.525E1,4E0,1.1749E2,-5.7503067E-2,9.546354E-3,-6.6271024E-3,-4.3138236E-2,5.154025E-2,-8.2948315E-4,-1.879634E-2,1.6934766E-2],"split_indices":[45,4,45,109,67,112,1,0,0,0,0,0,0,0,0],"split_type":[0,0,0,0,0,0,0,0,0,0,0,0,0,0,0],"sum_hessian":[1.3140886E2,7.821503E1,5.3193832E1,3.9944805E1,3.827022E1,1.3144786E1,4.004905E1,2.0030825E0,3.7941723E1,1.8203522E1,2.0066698E1,1.053435E1,2.6104352E0,1.533787E1,2.4711178E1],"tree_param":{"num_deleted":"0","num_feature":"121","num_nodes":"15","size_leaf_vector":"1"}},{"base_weights":[3.7626736E-3,-3.6533815E-1,1.1999327E-1,6.4142294E-2,-6.044371E-1,1.6349763E-1,-8.9433616E-1,-5.5082843E-2,1.794019E-2,-1.2509039E-2,-5.966327E-2,4.8131016E-3,4.0770393E-2,-6.1304625E-2,-1.5589186E-2],"categories":[],"categories_nodes":[],"categories_segments":[],"categories_sizes":[],"default_left":[0,0,1,0,0,1,0,0,0,0,0,0,0,0,0],"id":26,"left_children":[1,3,5,7,9,11,13,-1,-1,-1,-1,-1,-1,-1,-1],"loss_changes":[5.543551E0,3.216823E0,4.481662E0,3.0361633E0,2.8771133E0,4.030164E0,7.366991E-2,0E0,0E0,0E0,0E0,0E0,0E0,0E0,0E0],"parents":[2147483647,0,0,1,1,2,2,3,3,4,4,5,5,6,6],"right_children":[2,4,6,8,10,12,14,-1,-1,-1,-1,-1,-1,-1,-1],"split_conditions":[-3.7636976E-3,3.456E1,1.2527225E3,1E1,1.2E1,3.4432E2,2.1E1,-5.5082843E-2,1.794019E-2,-1.2509039E-2,-5.966327E-2,4.8131016E-3,4.0770393E-2,-6.1304625E-2,-1.5589186E-2],"split_indices":[22,67,109,119,118,1,119,0,0,0,0,0,0,0,0],"split_type":[0,0,0,0,0,0,0,0,0,0,0,0,0,0,0],"sum_hessian":[1.27196014E2,2.9948528E1,9.724749E1,1.0971949E1,1.897658E1,9.4052414E1,3.1950738E0,1.5559707E0,9.4159775E0,1.0177282E1,8.799297E0,8.197744E1,1.2074972E1,2.152576E0,1.0424978E0],"tree_param":{"num_deleted":"0","num_feature":"121","num_nodes":"15","size_leaf_vector":"1"}},{"base_weights":[-5.868625E-2,4.0918416E-1,-1.2245016E-1,9.5439076E-1,-1.5707102E-1,-8.945306E-2,-7.085617E-2,2.3972614E-2,7.826523E-2,-3.3126127E-2,3.2766577E-2,-7.924844E-3,3.342852E-2],"categories":[],"categories_nodes":[],"categories_segments":[],"categories_sizes":[],"default_left":[0,0,0,0,0,0,0,0,0,0,0,0,0],"id":27,"left_children":[1,3,5,7,9,11,-1,-1,-1,-1,-1,-1,-1],"loss_changes":[4.035747E0,5.167914E0,4.027739E0,1.1145258E0,2.7547712E0,3.2666793E0,0E0,0E0,0E0,0E0,0E0,0E0,0E0],"parents":[2147483647,0,0,1,1,2,2,3,3,4,4,5,5],"right_children":[2,4,6,8,10,12,-1,-1,-1,-1,-1,-1,-1],"split_conditions":[1E1,-2.2494497E-3,6.494735E2,2E0,3.4E1,7.1687633E-3,-7.085617E-2,2.3972614E-2,7.826523E-2,-3.3126127E-2,3.2766577E-2,-7.924844E-3,3.342852E-2],"split_indices":[118,28,1,112,119,42,0,0,0,0,0,0,0],"split_type":[0,0,0,0,0,0,0,0,0,0,0,0,0],"sum_hessian":[1.3259734E2,1.5253915E1,1.1734342E2,7.4221826E0,7.831732E0,1.1484769E2,2.4957356E0,3.6994624E0,3.7227204E0,5.1521945E0,2.6795373E0,1.08491E2,6.35669E0],"tree_param":{"num_deleted":"0","num_feature":"121","num_nodes":"13","size_leaf_vector":"1"}},{"base_weights":[-4.1705505E-3,8.659166E-2,-4.895204E-1,-9.484457E-1,1.3221489E-1,4.4140775E-2,-6.416915E-1,-1.7248102E-2,-6.3396506E-2,-7.855448E-3,1.8130874E-2,-3.029574E-3,-5.2347384E-2],"categories":[],"categories_nodes":[],"categories_segments":[],"categories_sizes":[],"default_left":[0,1,0,0,0,0,0,0,0,0,0,0,0],"id":28,"left_children":[1,3,5,7,9,-1,11,-1,-1,-1,-1,-1,-1],"loss_changes":[5.678577E0,5.255497E0,4.258156E0,3.2907963E-2,4.7325177E0,0E0,2.493204E0,0E0,0E0,0E0,0E0,0E0,0E0],"parents":[2147483647,0,0,1,1,2,2,3,3,4,4,6,6],"right_children":[2,4,6,8,10,-1,12,-1,-1,-1,-1,-1,-1],"split_conditions":[9.93E-1,6.9E0,-1.9053868E-3,-2.9461693E-3,1.8E1,4.4140775E-2,3.6632E0,-1.7248102E-2,-6.3396506E-2,-7.855448E-3,1.8130874E-2,-3.029574E-3,-5.2347384E-2],"split_indices":[90,1,4,22,119,0,110,0,0,0,0,0,0],"split_type":[0,0,0,0,0,0,0,0,0,0,0,0,0],"sum_hessian":[1.2694566E2,1.07638466E2,1.9307201E1,3.7088356E0,1.0392963E2,1.7094086E0,1.7597792E1,1.0359483E0,2.6728873E0,4.0875923E1,6.3053707E1,5.282729E0,1.2315063E1],"tree_param":{"num_deleted":"0","num_feature":"121","num_nodes":"13","size_leaf_vector":"1"}},{"base_weights":[-4.9836643E-2,3.443674E-2,-5.130005E-1,-7.6934434E-2,5.2766305E-1,-6.4444435E-1,2.4346991E-1,5.4863156E-3,-2.9995069E-2,-1.3438857E-2,5.8039013E-2,-9.147805E-3,-5.5504803E-2,3.896911E-2,-1.9175816E-2],"categories":[],"categories_nodes":[],"categories_segments":[],"categories_sizes":[],"default_left":[0,0,0,0,0,0,0,0,0,0,0,0,0,0,0],"id":29,"left_children":[1,3,5,7,9,11,13,-1,-1,-1,-1,-1,-1,-1,-1],"loss_changes":[5.0418954E0,6.07431E0,2.13346E0,6.489643E0,6.945158E0,2.2350574E0,1.0462427E0,0E0,0E0,0E0,0E0,0E0,0E0,0E0,0E0],"parents":[2147483647,0,0,1,1,2,2,3,3,4,4,5,5,6,6],"right_children":[2,4,6,8,10,12,14,-1,-1,-1,-1,-1,-1,-1,-1],"split_conditions":[9.93E-1,9.8E-1,5.6202007E-3,1.776779E9,2E0,1.21E-1,7.5716805E-1,5.4863156E-3,-2.9995069E-2,-1.3438857E-2,5.8039013E-2,-9.147805E-3,-5.5504803E-2,3.896911E-2,-1.9175816E-2],"split_indices":[90,90,40,115,112,92,109,0,0,0,0,0,0,0,0],"split_type":[0,0,0,0,0,0,0,0,0,0,0,0,0,0,0],"sum_hessian":[1.2771951E2,1.0884132E2,1.8878199E1,8.9480515E1,1.9360804E1,1.62097E1,2.6684988E0,6.4563965E1,2.4916546E1,7.326232E0,1.2034571E1,6.448372E0,9.761328E0,1.4613054E0,1.2071934E0],"tree_param":{"num_deleted":"0","num_feature":"121","num_nodes":"15","size_leaf_vector":"1"}},{"base_weights":[-2.3233175E-2,-1.0376012E-1,3.8347146E-1,4.0317398E-2,-4.0831393E-1,-2.4199834E-2,1.3039714E0,1.2521226E-2,-2.3035355E-2,2.492959E-2,-3.1040343E-2,1.7075129E-2,-6.31228E-2,9.6379675E-2,-2.753835E-3],"categories":[],"categories_nodes":[],"categories_segments":[],"categories_sizes":[],"default_left":[1,0,0,1,0,0,0,0,0,0,0,0,0,0,0],"id":30,"left_children":[1,3,5,7,9,11,13,-1,-1,-1,-1,-1,-1,-1,-1],"loss_changes":[4.33984E0,4.8600235E0,8.254631E0,5.497603E0,3.4069514E0,5.4310875E0,2.8263197E0,0E0,0E0,0E0,0E0,0E0,0E0,0E0,0E0],"parents":[2147483647,0,0,1,1,2,2,3,3,4,4,5,5,6,6],"right_children":[2,4,6,8,10,12,14,-1,-1,-1,-1,-1,-1,-1,-1],"split_conditions":[1.9790289E0,1.1494651E-3,3.7E1,4.55235E-1,1E0,9.699571E2,1.24E-1,1.2521226E-2,-2.3035355E-2,2.492959E-2,-3.1040343E-2,1.7075129E-2,-6.31228E-2,9.6379675E-2,-2.753835E-3],"split_indices":[109,4,119,109,80,109,92,0,0,0,0,0,0,0,0],"split_type":[0,0,0,0,0,0,0,0,0,0,0,0,0,0,0],"sum_hessian":[1.3029652E2,1.0938359E2,2.0912924E1,7.484414E1,3.453945E1,1.5168711E1,5.744213E0,5.394348E1,2.090066E1,3.7082775E0,3.0831177E1,1.2220545E1,2.9481661E0,4.537804E0,1.2064091E0],"tree_param":{"num_deleted":"0","num_feature":"121","num_nodes":"15","size_leaf_vector":"1"}},{"base_weights":[-2.382999E-2,6.9676195E-3,-7.062518E-2,4.3353125E-2,-8.3584034E-1,-7.656128E-4,3.162088E-2,-5.845707E-2,-9.489091E-3],"categories":[],"categories_nodes":[],"categories_segments":[],"categories_sizes":[],"default_left":[0,0,0,0,0,0,0,0,0],"id":31,"left_children":[1,3,-1,5,7,-1,-1,-1,-1],"loss_changes":[4.684926E0,3.9995987E0,0E0,3.3949978E0,3.5237098E-1,0E0,0E0,0E0,0E0],"parents":[2147483647,0,0,1,1,3,3,4,4],"right_children":[2,4,-1,6,8,-1,-1,-1,-1],"split_conditions":[7.055073E2,1.7768733E9,-7.062518E-2,3.5654E2,-2.7558305E-3,-7.656128E-4,3.162088E-2,-5.845707E-2,-9.489091E-3],"split_indices":[1,115,0,1,42,0,0,0,0],"split_type":[0,0,0,0,0,0,0,0,0],"sum_hessian":[1.3067368E2,1.2824292E2,2.4307573E0,1.2384487E2,4.398041E0,1.1184274E2,1.200213E1,3.288566E0,1.1094744E0],"tree_param":{"num_deleted":"0","num_feature":"121","num_nodes":"9","size_leaf_vector":"1"}},{"base_weights":[3.6432017E-2,-3.0104345E-1,1.278678E-1,-6.423323E-1,4.9364254E-1,-4.604637E-1,1.9563119E-1,-4.942039E-2,1.1654511E-2,6.618011E-2,9.850498E-3,-5.874316E-2,-4.1397503E-3,-4.271689E-3,2.3560293E-2],"categories":[],"categories_nodes":[],"categories_segments":[],"categories_sizes":[],"default_left":[0,0,1,0,0,0,0,0,0,0,0,0,0,0,0],"id":32,"left_children":[1,3,5,7,9,11,13,-1,-1,-1,-1,-1,-1,-1,-1],"loss_changes":[3.9687335E0,7.762165E0,4.113393E0,3.1391726E0,1.5881729E0,2.1089761E0,4.822646E0,0E0,0E0,0E0,0E0,0E0,0E0,0E0,0E0],"parents":[2147483647,0,0,1,1,2,2,3,3,4,4,5,5,6,6],"right_children":[2,4,6,8,10,12,14,-1,-1,-1,-1,-1,-1,-1,-1],"split_conditions":[1.9790289E0,5.3952825E-3,1.906E1,5.0088E0,5.4022847E-3,2.5E1,1.7767067E9,-4.942039E-2,1.1654511E-2,6.618011E-2,9.850498E-3,-5.874316E-2,-4.1397503E-3,-4.271689E-3,2.3560293E-2],"split_indices":[109,22,1,110,40,112,115,0,0,0,0,0,0,0,0],"split_type":[0,0,0,0,0,0,0,0,0,0,0,0,0,0,0],"sum_hessian":[1.263681E2,2.64506E1,9.99175E1,1.8637978E1,7.812621E0,9.721229E0,9.019628E1,1.5330308E1,3.3076696E0,1.917788E0,5.894833E0,3.5360026E0,6.1852255E0,3.858472E1,5.1611557E1],"tree_param":{"num_deleted":"0","num_feature":"121","num_nodes":"15","size_leaf_vector":"1"}},{"base_weights":[4.118375E-2,-7.114727E-2,3.7724963E-1,-4.6605515E-1,5.456852E-2,5.7169753E-1,-3.2003644E-1,1.6203824E-2,-3.825347E-2,-2.8241232E-2,1.0313488E-2,-1.8718345E-2,3.9121076E-2,7.782245E-3,-4.8562583E-2],"categories":[],"categories_nodes":[],"categories_segments":[],"categories_sizes":[],"default_left":[0,0,0,0,1,0,0,0,0,0,0,0,0,0,0],"id":33,"left_children":[1,3,5,7,9,11,13,-1,-1,-1,-1,-1,-1,-1,-1],"loss_changes":[4.9437613E0,4.913571E0,4.628532E0,3.186944E0,4.738464E0,2.048606E0,1.8195248E0,0E0,0E0,0E0,0E0,0E0,0E0,0E0,0E0],"parents":[2147483647,0,0,1,1,2,2,3,3,4,4,5,5,6,6],"right_children":[2,4,6,8,10,12,14,-1,-1,-1,-1,-1,-1,-1,-1],"split_conditions":[1.4E1,1.9790289E0,1.7767965E9,-6.9829205E-4,5.264E1,-9.379622E-3,2.6444223E2,1.6203824E-2,-3.825347E-2,-2.8241232E-2,1.0313488E-2,-1.8718345E-2,3.9121076E-2,7.782245E-3,-4.8562583E-2],"split_indices":[118,109,115,4,1,42,109,0,0,0,0,0,0,0,0],"split_type":[0,0,0,0,0,0,0,0,0,0,0,0,0,0,0],"sum_hessian":[1.292474E2,9.745956E1,3.1787853E1,2.2879993E1,7.457957E1,2.499716E1,6.7906947E0,4.2147737E0,1.866522E1,1.3066929E1,6.1512634E1,1.8424765E0,2.3154682E1,3.9214897E0,2.8692052E0],"tree_param":{"num_deleted":"0","num_feature":"121","num_nodes":"15","size_leaf_vector":"1"}},{"base_weights":[-6.537885E-2,-3.205543E-2,-6.448616E-2,-8.200154E-2,9.8949677E-1,1.125949E-2,-1.2195486E-2,7.834683E-2,-6.6213794E-3],"categories":[],"categories_nodes":[],"categories_segments":[],"categories_sizes":[],"default_left":[1,1,0,0,0,0,0,0,0],"id":34,"left_children":[1,3,-1,5,7,-1,-1,-1,-1],"loss_changes":[4.207464E0,6.3626046E0,0E0,3.906199E0,2.1670003E0,0E0,0E0,0E0,0E0],"parents":[2147483647,0,0,1,1,3,3,4,4],"right_children":[2,4,-1,6,8,-1,-1,-1,-1],"split_conditions":[1.2146359E3,6.9071606E2,-6.448616E-2,-1.11180576E-4,5.302292E-1,1.125949E-2,-1.2195486E-2,7.834683E-2,-6.6213794E-3],"split_indices":[109,109,0,4,45,0,0,0,0],"split_type":[0,0,0,0,0,0,0,0,0],"sum_hessian":[1.251111E2,1.2211154E2,2.9995604E0,1.1729637E2,4.815169E0,3.621377E1,8.10826E1,3.5943208E0,1.2208478E0],"tree_param":{"num_deleted":"0","num_feature":"121","num_nodes":"9","size_leaf_vector":"1"}},{"base_weights":[2.7592663E-2,-7.6688814E-1,5.971413E-2,1.3615213E-2,-6.356522E-2,8.5782796E-2,-7.142002E-1,7.2709547E-4,2.2150232E-2,-7.4932952E-3,-5.153159E-2],"categories":[],"categories_nodes":[],"categories_segments":[],"categories_sizes":[],"default_left":[1,0,0,0,0,0,0,0,0,0,0],"id":35,"left_children":[1,3,5,-1,-1,7,9,-1,-1,-1,-1],"loss_changes":[3.4323866E0,1.7606053E0,2.6532369E0,0E0,0E0,2.608762E0,2.587819E-1,0E0,0E0,0E0,0E0],"parents":[2147483647,0,0,1,1,2,2,5,5,6,6],"right_children":[2,4,6,-1,-1,8,10,-1,-1,-1,-1],"split_conditions":[6.9E0,6.55E0,1.7768733E9,1.3615213E-2,-6.356522E-2,6.3E-2,1.3016E2,7.2709547E-4,2.2150232E-2,-7.4932952E-3,-5.153159E-2],"split_indices":[1,1,115,0,0,99,1,0,0,0,0],"split_type":[0,0,0,0,0,0,0,0,0,0,0],"sum_hessian":[1.3170404E2,4.229072E0,1.2747497E2,1.012758E0,3.2163138E0,1.2418118E2,3.2937827E0,9.938861E1,2.4792568E1,1.0164227E0,2.27736E0],"tree_param":{"num_deleted":"0","num_feature":"121","num_nodes":"11","size_leaf_vector":"1"}},{"base_weights":[5.9795924E-3,-5.5877167E-1,6.350565E-2,4.031007E-2,-9.051627E-1,1.2854096E-1,-4.152119E-1,-6.8964094E-2,1.9120857E-2,-5.994544E-2,1.0816414E-2,1.7413294E-2,-4.4122707E-2],"categories":[],"categories_nodes":[],"categories_segments":[],"categories_sizes":[],"default_left":[0,0,0,0,0,0,0,0,0,0,0,0,0],"id":36,"left_children":[1,3,5,-1,7,9,11,-1,-1,-1,-1,-1,-1],"loss_changes":[4.1872616E0,5.687539E0,3.6922154E0,0E0,3.2730737E0,6.2273216E0,3.4241047E0,0E0,0E0,0E0,0E0,0E0,0E0],"parents":[2147483647,0,0,1,1,2,2,4,4,5,5,6,6],"right_children":[2,4,6,-1,8,10,12,-1,-1,-1,-1,-1,-1],"split_conditions":[-9.1324E-3,1.7764413E9,9.95E-1,4.031007E-2,4.1E1,4.675219E-1,3.6632E0,-6.8964094E-2,1.9120857E-2,-5.994544E-2,1.0816414E-2,1.7413294E-2,-4.4122707E-2],"split_indices":[22,115,90,0,119,109,110,0,0,0,0,0,0],"split_type":[0,0,0,0,0,0,0,0,0,0,0,0,0],"sum_hessian":[1.267945E2,1.0915941E1,1.1587856E2,2.191342E0,8.724599E0,1.02662964E2,1.3215603E1,7.3238306E0,1.4007688E0,3.7000136E0,9.8962944E1,4.1547766E0,9.060826E0],"tree_param":{"num_deleted":"0","num_feature":"121","num_nodes":"13","size_leaf_vector":"1"}},{"base_weights":[-2.6597446E-2,-9.081412E-2,3.3952972E-1,-6.762102E-1,-4.2142276E-2,1.002712E0,3.7358124E-2,-5.7507128E-2,1.11864675E-2,9.1824937E-4,-3.2911334E-2,-2.8181914E-3,7.399733E-2,-1.9225668E-2,3.9347827E-2],"categories":[],"categories_nodes":[],"categories_segments":[],"categories_sizes":[],"default_left":[0,0,0,0,0,0,0,0,0,0,0,0,0,0,0],"id":37,"left_children":[1,3,5,7,9,11,13,-1,-1,-1,-1,-1,-1,-1,-1],"loss_changes":[3.0376294E0,3.094028E0,3.8290482E0,2.210735E0,2.9827E0,1.5103102E0,3.372878E0,0E0,0E0,0E0,0E0,0E0,0E0,0E0,0E0],"parents":[2147483647,0,0,1,1,2,2,3,3,4,4,5,5,6,6],"right_children":[2,4,6,8,10,12,14,-1,-1,-1,-1,-1,-1,-1,-1],"split_conditions":[1.23E-1,7.045109E-1,-6.9829205E-4,5.3952825E-3,4.8123826E-3,5.920758E-1,3.5E1,-5.7507128E-2,1.11864675E-2,9.1824937E-4,-3.2911334E-2,-2.8181914E-3,7.399733E-2,-1.9225668E-2,3.9347827E-2],"split_indices":[99,109,4,22,22,109,119,0,0,0,0,0,0,0,0],"split_type":[0,0,0,0,0,0,0,0,0,0,0,0,0,0,0],"sum_hessian":[1.26886314E2,1.08591866E2,1.8294449E1,7.3459435E0,1.0124592E2,5.0007806E0,1.329367E1,5.451327E0,1.8946167E0,9.180127E1,9.444647E0,1.0440636E0,3.9567168E0,8.726815E0,4.566854E0],"tree_param":{"num_deleted":"0","num_feature":"121","num_nodes":"15","size_leaf_vector":"1"}},{"base_weights":[-5.349362E-2,-3.0512363E-1,1.0727354E-1,-4.3538835E-2,-5.42416E-1,-5.2667096E-2,1.6463564E-1,-4.7763236E-2,1.0516669E-2,4.2168353E-2,-4.0276438E-2,1.44930445E-2,-1.7560644E-2],"categories":[],"categories_nodes":[],"categories_segments":[],"categories_sizes":[],"default_left":[0,0,1,0,0,0,0,0,0,0,0,0,0],"id":38,"left_children":[1,3,5,7,9,-1,11,-1,-1,-1,-1,-1,-1],"loss_changes":[5.177181E0,3.0697398E0,4.57075E0,4.221751E0,4.6506333E0,0E0,2.7040193E0,0E0,0E0,0E0,0E0,0E0,0E0],"parents":[2147483647,0,0,1,1,2,2,3,3,4,4,6,6],"right_children":[2,4,6,8,10,-1,12,-1,-1,-1,-1,-1,-1],"split_conditions":[1.8E1,8E0,6.9E0,3.5148E1,-9.5366575E-3,-5.2667096E-2,9.93E-1,-4.7763236E-2,1.0516669E-2,4.2168353E-2,-4.0276438E-2,1.44930445E-2,-1.7560644E-2],"split_indices":[119,119,1,67,22,0,90,0,0,0,0,0,0],"split_type":[0,0,0,0,0,0,0,0,0,0,0,0,0],"sum_hessian":[1.2616837E2,4.88349E1,7.733347E1,2.3791388E1,2.5043512E1,3.4684536E0,7.386502E1,4.7653284E0,1.902606E1,1.930826E0,2.3112686E1,6.363423E1,1.0230783E1],"tree_param":{"num_deleted":"0","num_feature":"121","num_nodes":"13","size_leaf_vector":"1"}},{"base_weights":[-1.6444687E-2,-1.489934E-1,2.288704E-1,-3.3676657E-1,1.4392973E-1,2.8810227E-1,-5.50604E-2,-1.6355703E-3,-3.5160817E-2,1.5045385E-5,4.5577366E-2,2.229919E-2,-4.0131394E-2],"categories":[],"categories_nodes":[],"categories_segments":[],"categories_sizes":[],"default_left":[0,0,0,0,0,0,0,0,0,0,0,0,0],"id":39,"left_children":[1,3,5,7,9,11,-1,-1,-1,-1,-1,-1,-1],"loss_changes":[3.8821795E0,4.3076973E0,3.1103919E0,3.6473389E0,2.7376466E0,3.4955273E0,0E0,0E0,0E0,0E0,0E0,0E0,0E0],"parents":[2147483647,0,0,1,1,2,2,3,3,4,4,5,5],"right_children":[2,4,6,8,10,12,-1,-1,-1,-1,-1,-1,-1],"split_conditions":[3.1E1,1.3E1,7.093287E2,1.3E1,3.5408E0,4.7988E0,-5.50604E-2,-1.6355703E-3,-3.5160817E-2,1.5045385E-5,4.5577366E-2,2.229919E-2,-4.0131394E-2],"split_indices":[119,118,1,119,110,110,0,0,0,0,0,0,0],"split_type":[0,0,0,0,0,0,0,0,0,0,0,0,0],"sum_hessian":[1.1734345E2,7.643611E1,4.0907337E1,4.6486862E1,2.994925E1,3.9609768E1,1.2975682E0,2.123156E1,2.5255304E1,2.5093746E1,4.855504E0,3.69917E1,2.6180692E0],"tree_param":{"num_deleted":"0","num_feature":"121","num_nodes":"13","size_leaf_vector":"1"}},{"base_weights":[-1.1077178E-2,-1.6735224E-1,1.9576228E-1,-6.3414074E-2,-7.714007E-1,1.0336554E-1,9.953489E-1,2.1648703E-2,-9.440281E-3,2.9781243E-2,-6.646584E-2,5.100715E-2,1.5567628E-3,8.4936805E-2,-2.2041438E-2],"categories":[],"categories_nodes":[],"categories_segments":[],"categories_sizes":[],"default_left":[0,0,0,0,0,0,0,0,0,0,0,0,0,0,0],"id":40,"left_children":[1,3,5,7,9,11,13,-1,-1,-1,-1,-1,-1,-1,-1],"loss_changes":[4.109071E0,4.494972E0,3.940868E0,2.5605574E0,5.0424485E0,2.879061E0,3.7007098E0,0E0,0E0,0E0,0E0,0E0,0E0,0E0,0E0],"parents":[2147483647,0,0,1,1,2,2,3,3,4,4,5,5,6,6],"right_children":[2,4,6,8,10,12,14,-1,-1,-1,-1,-1,-1,-1,-1],"split_conditions":[5.3258914E-1,5.302977E-3,4.5E1,1E1,-9.267035E-4,3.5412E1,1.7767904E9,2.1648703E-2,-9.440281E-3,2.9781243E-2,-6.646584E-2,5.100715E-2,1.5567628E-3,8.4936805E-2,-2.2041438E-2],"split_indices":[45,42,119,118,4,67,115,0,0,0,0,0,0,0,0],"split_type":[0,0,0,0,0,0,0,0,0,0,0,0,0,0,0],"sum_hessian":[1.25108406E2,7.137374E1,5.3734665E1,6.183826E1,9.535481E0,4.918082E1,4.5538473E0,1.0694216E1,5.1144043E1,1.8997328E0,7.635749E0,3.6823015E0,4.5498516E1,3.450785E0,1.1030623E0],"tree_param":{"num_deleted":"0","num_feature":"121","num_nodes":"15","size_leaf_vector":"1"}},{"base_weights":[4.372811E-2,-2.3751843E-1,1.3488066E-1,-4.0729994E-1,4.6265158E-1,-2.1146032E-1,2.3575135E-1,-3.5024423E-2,1.6524969E-2,6.018279E-2,-3.406629E-2,-2.1224534E-3,-6.387451E-2,1.899266E-2,-1.3587846E-2],"categories":[],"categories_nodes":[],"categories_segments":[],"categories_sizes":[],"default_left":[0,0,0,1,0,0,0,0,0,0,0,0,0,0,0],"id":41,"left_children":[1,3,5,7,9,11,13,-1,-1,-1,-1,-1,-1,-1,-1],"loss_changes":[3.2604265E0,3.8957345E0,3.394728E0,3.2483358E0,4.2193146E0,3.2856426E0,2.8583264E0,0E0,0E0,0E0,0E0,0E0,0E0,0E0,0E0],"parents":[2147483647,0,0,1,1,2,2,3,3,4,4,5,5,6,6],"right_children":[2,4,6,8,10,12,14,-1,-1,-1,-1,-1,-1,-1,-1],"split_conditions":[5.2721274E-1,3.6E1,1.1E1,2.8193E2,1.4699667E2,-4.9455767E-4,9.95E-1,-3.5024423E-2,1.6524969E-2,6.018279E-2,-3.406629E-2,-2.1224534E-3,-6.387451E-2,1.899266E-2,-1.3587846E-2],"split_indices":[45,119,118,1,1,22,90,0,0,0,0,0,0,0,0],"split_type":[0,0,0,0,0,0,0,0,0,0,0,0,0,0,0],"sum_hessian":[1.249302E2,3.0186275E1,9.474393E1,2.4631712E1,5.554563E0,2.1122646E1,7.3621284E1,1.9688427E1,4.9432855E0,3.661103E0,1.8934603E0,1.8372051E1,2.750595E0,6.2935604E1,1.0685678E1],"tree_param":{"num_deleted":"0","num_feature":"121","num_nodes":"15","size_leaf_vector":"1"}},{"base_weights":[-3.3301968E-2,6.418207E-2,-6.389034E-2,-2.0247668E-1,1.3368805E-1,-1.6763603E-2,3.2686904E-2,3.344262E-2,-7.3449564E-4],"categories":[],"categories_nodes":[],"categories_segments":[],"categories_sizes":[],"default_left":[0,0,0,1,0,0,0,0,0],"id":42,"left_children":[1,-1,3,5,7,-1,-1,-1,-1],"loss_changes":[4.294328E0,0E0,3.3900502E0,4.324067E0,3.1746345E0,0E0,0E0,0E0,0E0],"parents":[2147483647,0,0,2,2,3,3,4,4],"right_children":[2,-1,4,6,8,-1,-1,-1,-1],"split_conditions":[1.7764416E9,6.418207E-2,5.3265065E-1,6.462503E2,5.3353095E-1,-1.6763603E-2,3.2686904E-2,3.344262E-2,-7.3449564E-4],"split_indices":[115,0,45,109,45,0,0,0,0],"split_type":[0,0,0,0,0,0,0,0,0],"sum_hessian":[1.2425491E2,2.4361885E0,1.21818726E2,7.15835E1,5.0235218E1,6.54706E1,6.1129045E0,1.2147356E1,3.8087864E1],"tree_param":{"num_deleted":"0","num_feature":"121","num_nodes":"9","size_leaf_vector":"1"}},{"base_weights":[-4.4879727E-3,2.5405468E-2,-8.59332E-1,-6.0408078E-2,2.6841384E-1,-1.6043685E-2,-6.668811E-2,-6.7825555E-3,4.1795626E-2,-3.6424424E-2,2.3082651E-2],"categories":[],"categories_nodes":[],"categories_segments":[],"categories_sizes":[],"default_left":[0,0,0,0,0,0,0,0,0,0,0],"id":43,"left_children":[1,3,5,7,9,-1,-1,-1,-1,-1,-1],"loss_changes":[3.2064908E0,2.5474863E0,3.3553815E-1,3.685559E0,3.4775908E0,0E0,0E0,0E0,0E0,0E0,0E0],"parents":[2147483647,0,0,1,1,2,2,3,3,4,4],"right_children":[2,4,6,8,10,-1,-1,-1,-1,-1,-1],"split_conditions":[6.494735E2,1.4E1,3.54E1,4.6E1,4E0,-1.6043685E-2,-6.668811E-2,-6.7825555E-3,4.1795626E-2,-3.6424424E-2,2.3082651E-2],"split_indices":[1,118,67,119,119,0,0,0,0,0,0],"split_type":[0,0,0,0,0,0,0,0,0,0,0],"sum_hessian":[1.2362355E2,1.2038406E2,3.239486E0,8.952242E1,3.0861639E1,1.583184E0,1.6563019E0,8.449793E1,5.0244904E0,3.1240048E0,2.7737635E1],"tree_param":{"num_deleted":"0","num_feature":"121","num_nodes":"11","size_leaf_vector":"1"}},{"base_weights":[-1.0796183E-2,-5.9018612E-2,1.276971E-2,-2.7124587E-1,9.695117E-2,-4.4765823E-2,7.808965E-3,-2.5443817E-2,9.249894E-3],"categories":[],"categories_nodes":[],"categories_segments":[],"categories_sizes":[],"default_left":[0,0,0,0,0,0,0,0,0],"id":44,"left_children":[1,-1,3,5,7,-1,-1,-1,-1],"loss_changes":[2.7405517E0,0E0,2.8275537E0,5.253051E0,2.7813904E0,0E0,0E0,0E0,0E0],"parents":[2147483647,0,0,2,2,3,3,4,4],"right_children":[2,-1,4,6,8,-1,-1,-1,-1],"split_conditions":[6.249675E-1,-5.9018612E-2,2.129039E0,2E0,1.776447E9,-4.4765823E-2,7.808965E-3,-2.5443817E-2,9.249894E-3],"split_indices":[76,0,109,112,115,0,0,0,0],"split_type":[0,0,0,0,0,0,0,0,0],"sum_hessian":[1.1799105E2,1.8270401E0,1.1616401E2,2.6050703E1,9.011331E1,1.1540049E1,1.4510654E1,8.281966E0,8.1831345E1],"tree_param":{"num_deleted":"0","num_feature":"121","num_nodes":"9","size_leaf_vector":"1"}},{"base_weights":[-3.6168776E-2,3.0486703E-1,-1.0837799E-1,4.8819974E-1,-6.0758775E-1,-3.2357124E-3,-4.9669594E-1,5.1126196E-3,5.390548E-2,-9.293826E-3,-5.045216E-2,-1.7701037E-2,9.837061E-3,-3.91569E-2,1.3989106E-2],"categories":[],"categories_nodes":[],"categories_segments":[],"categories_sizes":[],"default_left":[0,0,0,0,0,0,0,0,0,0,0,0,0,0,0],"id":45,"left_children":[1,3,5,7,9,11,13,-1,-1,-1,-1,-1,-1,-1,-1],"loss_changes":[3.0915103E0,3.9708397E0,4.213257E0,3.0386376E0,3.0487013E-1,4.060375E0,2.6544957E0,0E0,0E0,0E0,0E0,0E0,0E0,0E0,0E0],"parents":[2147483647,0,0,1,1,2,2,3,3,4,4,5,5,6,6],"right_children":[2,4,6,8,10,12,14,-1,-1,-1,-1,-1,-1,-1,-1],"split_conditions":[-6.9829205E-4,4.4E1,3.905E0,5.2912533E-1,3.541464E1,1.6E1,3.5598E1,5.1126196E-3,5.390548E-2,-9.293826E-3,-5.045216E-2,-1.7701037E-2,9.837061E-3,-3.91569E-2,1.3989106E-2],"split_indices":[4,119,110,45,67,119,67,0,0,0,0,0,0,0,0],"split_type":[0,0,0,0,0,0,0,0,0,0,0,0,0,0,0],"sum_hessian":[1.23197136E2,2.0964102E1,1.0223303E2,1.7843834E1,3.1202676E0,8.1243576E1,2.0989452E1,9.61053E0,8.233304E0,1.6270045E0,1.4932632E0,2.9315788E1,5.192779E1,1.7381931E1,3.607522E0],"tree_param":{"num_deleted":"0","num_feature":"121","num_nodes":"15","size_leaf_vector":"1"}},{"base_weights":[-4.723335E-2,6.701757E-1,-8.659684E-2,7.86E-2,-2.3564702E-1,-5.788029E-2,-5.9839547E-2,-4.5073014E-2,2.6652176E-2,-6.1137476E-3,4.8506882E-2],"categories":[],"categories_nodes":[],"categories_segments":[],"categories_sizes":[],"default_left":[0,0,1,0,0,1,0,0,0,0,0],"id":46,"left_children":[1,3,5,-1,7,9,-1,-1,-1,-1,-1],"loss_changes":[3.6291428E0,4.187207E0,3.1006355E0,0E0,1.6017483E0,4.587085E0,0E0,0E0,0E0,0E0,0E0],"parents":[2147483647,0,0,1,1,2,2,4,4,5,5],"right_children":[2,4,6,-1,8,10,-1,-1,-1,-1,-1],"split_conditions":[-2.1589445E-3,1.7369E2,1.2146359E3,7.86E-2,3.821E0,6.9071606E2,-5.9839547E-2,-4.5073014E-2,2.6652176E-2,-6.1137476E-3,4.8506882E-2],"split_indices":[4,1,109,0,110,109,0,0,0,0,0],"split_type":[0,0,0,0,0,0,0,0,0,0,0],"sum_hessian":[1.25456894E2,5.692079E0,1.1976482E2,3.0743353E0,2.6177435E0,1.1713494E2,2.6298738E0,1.4290427E0,1.1887008E0,1.12311134E2,4.823805E0],"tree_param":{"num_deleted":"0","num_feature":"121","num_nodes":"11","size_leaf_vector":"1"}},{"base_weights":[-3.914502E-2,3.5975245E-1,-1.2506197E-1,-1.8191713E-1,6.567978E-1,-7.5957215E-1,-6.579661E-2,3.155714E-2,-3.5858106E-2,-1.3012388E-2,4.4671077E-2,-5.712487E-2,-3.5890022E-3,4.7485042E-2,-6.4301463E-3],"categories":[],"categories_nodes":[],"categories_segments":[],"categories_sizes":[],"default_left":[0,0,0,0,0,0,0,0,0,0,0,0,0,0,0],"id":47,"left_children":[1,3,5,7,9,11,13,-1,-1,-1,-1,-1,-1,-1,-1],"loss_changes":[4.407198E0,3.790321E0,3.916068E0,2.9225357E0,1.3072996E0,1.1439352E0,3.5445313E0,0E0,0E0,0E0,0E0,0E0,0E0,0E0,0E0],"parents":[2147483647,0,0,1,1,2,2,3,3,4,4,5,5,6,6],"right_children":[2,4,6,8,10,12,14,-1,-1,-1,-1,-1,-1,-1,-1],"split_conditions":[-8.3258224E-4,1.7767049E9,-3.9563148E-4,1.3E1,4.63629E-1,7E0,-1.925666E-4,3.155714E-2,-3.5858106E-2,-1.3012388E-2,4.4671077E-2,-5.712487E-2,-3.5890022E-3,4.7485042E-2,-6.4301463E-3],"split_indices":[4,115,4,119,109,112,4,0,0,0,0,0,0,0,0],"split_type":[0,0,0,0,0,0,0,0,0,0,0,0,0,0,0],"sum_hessian":[1.2628172E2,2.1814339E1,1.04467384E2,7.863193E0,1.3951146E1,7.9146504E0,9.6552734E1,2.8112063E0,5.0519867E0,1.1386033E0,1.2812543E1,5.924246E0,1.9904048E0,3.6107628E0,9.294197E1],"tree_param":{"num_deleted":"0","num_feature":"121","num_nodes":"15","size_leaf_vector":"1"}},{"base_weights":[-4.9349118E-2,-1.0839708E-1,3.4828538E-1,-2.7723613E-1,2.3420637E-2,4.9681038E-1,-3.7449736E-2,4.2435125E-2,-2.0780157E-2,8.198314E-3,-5.234795E-2,6.1142854E-2,-1.6059616E-3],"categories":[],"categories_nodes":[],"categories_segments":[],"categories_sizes":[],"default_left":[0,1,0,0,0,0,0,0,0,0,0,0,0],"id":48,"left_children":[1,3,5,7,9,11,-1,-1,-1,-1,-1,-1,-1],"loss_changes":[2.9489381E0,2.4261532E0,2.6598325E0,3.4928803E0,6.4054103E0,4.0385113E0,0E0,0E0,0E0,0E0,0E0,0E0,0E0],"parents":[2147483647,0,0,1,1,2,2,3,3,4,4,5,5],"right_children":[2,4,6,8,10,12,-1,-1,-1,-1,-1,-1,-1],"split_conditions":[3.558E1,1.3221666E2,5.0316E0,-1.7366615E-3,1.3132578E-3,1.520814E0,-3.7449736E-2,4.2435125E-2,-2.0780157E-2,8.198314E-3,-5.234795E-2,6.1142854E-2,-1.6059616E-3],"split_indices":[67,1,110,4,22,109,0,0,0,0,0,0,0],"split_type":[0,0,0,0,0,0,0,0,0,0,0,0,0],"sum_hessian":[1.2298833E2,1.0771957E2,1.5268757E1,4.67441E1,6.0975468E1,1.3670007E1,1.59875E0,2.4600284E0,4.428407E1,5.4886635E1,6.088834E0,6.3699894E0,7.3000174E0],"tree_param":{"num_deleted":"0","num_feature":"121","num_nodes":"13","size_leaf_vector":"1"}},{"base_weights":[-1.9064855E-2,4.0580627E-2,-3.8797227E-1,1.9480741E-1,-1.3408004E-1,2.9067183E-2,-5.510944E-1,4.9056724E-2,6.0558612E-3,-3.8991384E-2,6.4417133E-3,1.784511E-2,-4.1632306E-2],"categories":[],"categories_nodes":[],"categories_segments":[],"categories_sizes":[],"default_left":[0,0,0,0,1,0,0,0,0,0,0,0,0],"id":49,"left_children":[1,3,5,7,9,-1,11,-1,-1,-1,-1,-1,-1],"loss_changes":[2.7668033E0,2.9496706E0,2.7568457E0,3.311172E0,6.481387E0,0E0,2.0487566E0,0E0,0E0,0E0,0E0,0E0,0E0],"parents":[2147483647,0,0,1,1,2,2,3,3,4,4,6,6],"right_children":[2,4,6,8,10,-1,12,-1,-1,-1,-1,-1,-1],"split_conditions":[9.93E-1,1.5436E2,-1.9053868E-3,1E1,2.3484E2,2.9067183E-2,3.2624E0,4.9056724E-2,6.0558612E-3,-3.8991384E-2,6.4417133E-3,1.784511E-2,-4.1632306E-2],"split_indices":[90,1,4,118,1,0,110,0,0,0,0,0,0],"split_type":[0,0,0,0,0,0,0,0,0,0,0,0,0],"sum_hessian":[1.2402733E2,1.0753149E2,1.6495846E1,5.7044968E1,5.048652E1,2.2881684E0,1.4207678E1,6.462344E0,5.0582623E1,1.5558456E1,3.4928062E1,1.890358E0,1.231732E1],"tree_param":{"num_deleted":"0","num_feature":"121","num_nodes":"13","size_leaf_vector":"1"}},{"base_weights":[3.2255914E-2,4.3260413E-1,-1.9777462E-2,8.0173516E-1,-5.9428906E-1,-2.5775212E-1,1.8905999E-1,6.548674E-2,-4.552442E-3,1.8444613E-2,-6.900623E-2,3.2885995E-2,-2.0368977E-2,-4.968601E-2,1.3976519E-2],"categories":[],"categories_nodes":[],"categories_segments":[],"categories_sizes":[],"default_left":[0,0,0,0,0,0,1,0,0,0,0,0,0,0,0],"id":50,"left_children":[1,3,5,7,9,11,13,-1,-1,-1,-1,-1,-1,-1,-1],"loss_changes":[2.5686991E0,5.8513384E0,5.5015144E0,2.8429666E0,2.5204446E0,3.5915055E0,2.8269668E0,0E0,0E0,0E0,0E0,0E0,0E0,0E0,0E0],"parents":[2147483647,0,0,1,1,2,2,3,3,4,4,5,5,6,6],"right_children":[2,4,6,8,10,12,14,-1,-1,-1,-1,-1,-1,-1,-1],"split_conditions":[1E1,8.073106E-4,5.322144E-1,5.308542E-1,-3.1376001E-3,1E0,6.9E0,6.548674E-2,-4.552442E-3,1.8444613E-2,-6.900623E-2,3.2885995E-2,-2.0368977E-2,-4.968601E-2,1.3976519E-2],"split_indices":[118,22,45,45,4,80,1,0,0,0,0,0,0,0,0],"split_type":[0,0,0,0,0,0,0,0,0,0,0,0,0,0,0],"sum_hessian":[1.2189788E2,1.3179554E1,1.0871833E2,9.855955E0,3.3235984E0,5.0704857E1,5.8013474E1,7.226675E0,2.62928E0,1.4378656E0,1.8857328E0,4.143591E0,4.6561264E1,1.660187E0,5.6353287E1],"tree_param":{"num_deleted":"0","num_feature":"121","num_nodes":"15","size_leaf_vector":"1"}},{"base_weights":[-2.0834258E-2,8.580061E-3,-5.673708E-2,3.563121E-2,-8.0031484E-1,-6.165134E-4,6.367098E-2,-1.3528994E-2,-5.606073E-2],"categories":[],"categories_nodes":[],"categories_segments":[],"categories_sizes":[],"default_left":[0,1,0,1,0,0,0,0,0],"id":51,"left_children":[1,3,-1,5,7,-1,-1,-1,-1],"loss_changes":[3.3755367E0,2.6754968E0,0E0,5.566818E0,9.4200134E-2,0E0,0E0,0E0,0E0],"parents":[2147483647,0,0,1,1,3,3,4,4],"right_children":[2,4,-1,6,8,-1,-1,-1,-1],"split_conditions":[6.494735E2,1.1454279E3,-5.673708E-2,6.9071606E2,1.7767918E9,-6.165134E-4,6.367098E-2,-1.3528994E-2,-5.606073E-2],"split_indices":[1,109,0,109,115,0,0,0,0],"split_type":[0,0,0,0,0,0,0,0,0],"sum_hessian":[1.22793755E2,1.19968666E2,2.8250854E0,1.17011505E2,2.9571607E0,1.1294574E2,4.065772E0,1.0663061E0,1.8908547E0],"tree_param":{"num_deleted":"0","num_feature":"121","num_nodes":"9","size_leaf_vector":"1"}},{"base_weights":[2.9913841E-3,-8.338392E-2,2.5184298E-1,-3.1849945E-1,7.908307E-2,-3.5192914E-2,1.0380051E0,-2.4614012E-2,4.4003308E-2,1.7335936E-2,-1.7137771E-2,4.0743228E-2,-1.7561333E-2,8.033008E-2,1.6412808E-2],"categories":[],"categories_nodes":[],"categories_segments":[],"categories_sizes":[],"default_left":[0,1,1,1,0,0,0,0,0,0,0,0,0,0,0],"id":52,"left_children":[1,3,5,7,9,11,13,-1,-1,-1,-1,-1,-1,-1,-1],"loss_changes":[2.6547039E0,3.528326E0,7.2168593E0,3.9362242E0,4.294555E0,4.6635723E0,1.5984688E0,0E0,0E0,0E0,0E0,0E0,0E0,0E0,0E0],"parents":[2147483647,0,0,1,1,2,2,3,3,4,4,5,5,6,6],"right_children":[2,4,6,8,10,12,14,-1,-1,-1,-1,-1,-1,-1,-1],"split_conditions":[1.4E1,1.1749E2,2.76533E2,6.9139014E2,2.7467E2,5.478E1,5.336676E-1,-2.4614012E-2,4.4003308E-2,1.7335936E-2,-1.7137771E-2,4.0743228E-2,-1.7561333E-2,8.033008E-2,1.6412808E-2],"split_indices":[118,1,1,109,1,1,45,0,0,0,0,0,0,0,0],"split_type":[0,0,0,0,0,0,0,0,0,0,0,0,0,0,0],"sum_hessian":[1.21528465E2,9.070877E1,3.0819695E1,3.6674522E1,5.4034252E1,2.3276455E1,7.543239E0,3.4293797E1,2.3807242E0,3.4431026E1,1.9603226E1,5.734065E0,1.7542389E1,4.8739076E0,2.6693313E0],"tree_param":{"num_deleted":"0","num_feature":"121","num_nodes":"15","size_leaf_vector":"1"}},{"base_weights":[1.6577374E-2,-1.782983E-2,6.9458836E-1,3.9932434E-2,-4.87656E-1,-1.2875179E-2,9.438593E-1,-2.2875538E-2,6.2633418E-3,2.6417455E-2,-4.2189274E-2,1.7731378E-2,6.96127E-2],"categories":[],"categories_nodes":[],"categories_segments":[],"categories_sizes":[],"default_left":[0,0,0,0,0,0,0,0,0,0,0,0,0],"id":53,"left_children":[1,3,5,7,9,-1,11,-1,-1,-1,-1,-1,-1],"loss_changes":[2.8578377E0,3.1962078E0,1.5432651E0,2.8949053E0,2.887536E0,0E0,3.3437395E-1,0E0,0E0,0E0,0E0,0E0,0E0],"parents":[2147483647,0,0,1,1,2,2,3,3,4,4,6,6],"right_children":[2,4,6,8,10,-1,12,-1,-1,-1,-1,-1,-1],"split_conditions":[5.6202007E-3,4.8123826E-3,4.592719E-1,1.8487229E0,6.65782E-1,-1.2875179E-2,3.868E0,-2.2875538E-2,6.2633418E-3,2.6417455E-2,-4.2189274E-2,1.7731378E-2,6.96127E-2],"split_indices":[40,22,109,109,109,0,110,0,0,0,0,0,0],"split_type":[0,0,0,0,0,0,0,0,0,0,0,0,0],"sum_hessian":[1.2097347E2,1.1605757E2,4.915902E0,1.04166E2,1.1891569E1,1.08773E0,3.828172E0,1.3172883E1,9.099312E1,2.0445433E0,9.847026E0,1.5498173E0,2.2783546E0],"tree_param":{"num_deleted":"0","num_feature":"121","num_nodes":"13","size_leaf_vector":"1"}},{"base_weights":[3.4408525E-2,6.217675E-2,1.1672391E-2,-3.0566427E-1,1.09567754E-1,-3.631995E-2,-1.4789517E-4,8.695827E-3,-4.5017947E-2],"categories":[],"categories_nodes":[],"categories_segments":[],"categories_sizes":[],"default_left":[0,0,0,0,1,0,0,0,0],"id":54,"left_children":[1,-1,3,5,7,-1,-1,-1,-1],"loss_changes":[2.8001328E0,0E0,3.815152E0,2.6300793E0,2.959951E0,0E0,0E0,0E0,0E0],"parents":[2147483647,0,0,2,2,3,3,4,4],"right_children":[2,-1,4,6,8,-1,-1,-1,-1],"split_conditions":[1.7764411E9,6.217675E-2,-3.681021E-3,2.452473E-5,1.3714277E3,-3.631995E-2,-1.4789517E-4,8.695827E-3,-4.5017947E-2],"split_indices":[115,0,22,4,109,0,0,0,0],"split_type":[0,0,0,0,0,0,0,0,0],"sum_hessian":[1.22458885E2,1.7281739E0,1.2073071E2,2.7963179E1,9.276753E1,1.3562324E1,1.4400856E1,8.99017E1,2.865828E0],"tree_param":{"num_deleted":"0","num_feature":"121","num_nodes":"9","size_leaf_vector":"1"}},{"base_weights":[-5.69156E-2,-1.2603498E-2,-6.327852E-1,-8.268541E-1,2.1543274E-2,-8.754118E-1,2.5246067E-2,-5.695258E-2,-1.365892E-2,5.50274E-3,-2.7728414E-2,-1.1662887E-2,-6.8461634E-2],"categories":[],"categories_nodes":[],"categories_segments":[],"categories_sizes":[],"default_left":[0,1,0,0,0,0,0,0,0,0,0,0,0],"id":55,"left_children":[1,3,5,7,9,11,-1,-1,-1,-1,-1,-1,-1],"loss_changes":[3.1334133E0,3.2244327E0,2.6115496E0,1.260972E-1,3.8321517E0,1.1272101E0,0E0,0E0,0E0,0E0,0E0,0E0,0E0],"parents":[2147483647,0,0,1,1,2,2,3,3,4,4,5,5],"right_children":[2,4,6,8,10,12,-1,-1,-1,-1,-1,-1,-1],"split_conditions":[3.5676E1,6.9E0,1.9E-2,9.72E-1,9.93E-1,1.3221666E2,2.5246067E-2,-5.695258E-2,-1.365892E-2,5.50274E-3,-2.7728414E-2,-1.1662887E-2,-6.8461634E-2],"split_indices":[67,1,95,90,90,1,0,0,0,0,0,0,0],"split_type":[0,0,0,0,0,0,0,0,0,0,0,0,0],"sum_hessian":[1.2210486E2,1.14329315E2,7.7755437E0,3.6672313E0,1.1066208E2,6.4575067E0,1.3180372E0,2.5603113E0,1.10692E0,9.7349724E1,1.3312357E1,2.297808E0,4.1596985E0],"tree_param":{"num_deleted":"0","num_feature":"121","num_nodes":"13","size_leaf_vector":"1"}},{"base_weights":[2.2017388E-2,-5.5125188E-2,3.8768053E-1,4.7163278E-4,-5.8295685E-1,6.3009E-1,-5.5032456E-1,3.2768378E-3,-3.7606325E-2,-5.402442E-2,4.718237E-2,-8.779957E-3,5.3028494E-2,-5.8194183E-2,2.7803471E-2],"categories":[],"categories_nodes":[],"categories_segments":[],"categories_sizes":[],"default_left":[1,1,0,0,0,0,0,0,0,0,0,0,0,0,0],"id":56,"left_children":[1,3,5,7,9,11,13,-1,-1,-1,-1,-1,-1,-1,-1],"loss_changes":[3.3614311E0,2.8953757E0,5.065512E0,3.0992575E0,4.795027E0,3.469751E0,2.4891462E0,0E0,0E0,0E0,0E0,0E0,0E0,0E0,0E0],"parents":[2147483647,0,0,1,1,2,2,3,3,4,4,5,5,6,6],"right_children":[2,4,6,8,10,12,14,-1,-1,-1,-1,-1,-1,-1,-1],"split_conditions":[1.9790289E0,8.841541E-1,1.2146359E3,4.5E1,4.2E1,5.55E1,3.3E1,3.2768378E-3,-3.7606325E-2,-5.402442E-2,4.718237E-2,-8.779957E-3,5.3028494E-2,-5.8194183E-2,2.7803471E-2],"split_indices":[109,109,109,119,119,1,119,0,0,0,0,0,0,0,0],"split_type":[0,0,0,0,0,0,0,0,0,0,0,0,0,0,0],"sum_hessian":[1.1740743E2,9.7654816E1,1.975262E1,8.925286E1,8.40195E0,1.5957085E1,3.795537E0,8.30013E1,6.251563E0,7.098711E0,1.3032393E0,4.03439E0,1.1922695E1,2.7150102E0,1.0805268E0],"tree_param":{"num_deleted":"0","num_feature":"121","num_nodes":"15","size_leaf_vector":"1"}},{"base_weights":[-7.030816E-3,3.4978196E-1,-6.288622E-2,-3.3376524E-1,5.6012994E-1,-3.5783836E-1,1.0670079E-2,1.1127587E-2,-5.3949762E-2,4.2661436E-2,-1.7420448E-2,-4.5496114E-2,3.144999E-2,-2.652194E-2,3.7738765E-3],"categories":[],"categories_nodes":[],"categories_segments":[],"categories_sizes":[],"default_left":[0,0,0,0,0,0,0,0,0,0,0,0,0,0,0],"id":57,"left_children":[1,3,5,7,9,11,13,-1,-1,-1,-1,-1,-1,-1,-1],"loss_changes":[2.471297E0,2.6005673E0,2.3276134E0,1.5103517E0,1.9016623E0,7.9585476E0,2.0777235E0,0E0,0E0,0E0,0E0,0E0,0E0,0E0,0E0],"parents":[2147483647,0,0,1,1,2,2,3,3,4,4,5,5,6,6],"right_children":[2,4,6,8,10,12,14,-1,-1,-1,-1,-1,-1,-1,-1],"split_conditions":[-1.1867698E-3,3.4476E1,2.571321E0,1.2797E2,4.4E1,3.5592E1,-9.9303955E-3,1.1127587E-2,-5.3949762E-2,4.2661436E-2,-1.7420448E-2,-4.5496114E-2,3.144999E-2,-2.652194E-2,3.7738765E-3],"split_indices":[4,67,109,1,119,67,42,0,0,0,0,0,0,0,0],"split_type":[0,0,0,0,0,0,0,0,0,0,0,0,0,0,0],"sum_hessian":[1.2189563E2,1.5786542E1,1.06109085E2,3.5767615E0,1.2209781E1,2.0408514E1,8.570058E1,2.214807E0,1.3619545E0,1.0509166E1,1.7006147E0,1.4132603E1,6.2759123E0,8.09251E0,7.760806E1],"tree_param":{"num_deleted":"0","num_feature":"121","num_nodes":"15","size_leaf_vector":"1"}},{"base_weights":[6.0110625E-2,-6.996764E-2,4.4623318E-1,4.1777784E-1,-1.3724998E-1,6.326337E-1,-2.657708E-1,1.691685E-3,5.766994E-2,-4.6646237E-2,-5.060521E-3,5.1450595E-2,1.5057394E-3,-4.417079E-2,1.1215913E-2],"categories":[],"categories_nodes":[],"categories_segments":[],"categories_sizes":[],"default_left":[0,0,0,0,1,0,0,0,0,0,0,0,0,0,0],"id":58,"left_children":[1,3,5,7,9,11,13,-1,-1,-1,-1,-1,-1,-1,-1],"loss_changes":[6.0112896E0,3.0083592E0,4.1680374E0,2.3329213E0,2.63653E0,3.2821226E0,1.6192038E0,0E0,0E0,0E0,0E0,0E0,0E0,0E0,0E0],"parents":[2147483647,0,0,1,1,2,2,3,3,4,4,5,5,6,6],"right_children":[2,4,6,8,10,12,14,-1,-1,-1,-1,-1,-1,-1,-1],"split_conditions":[1.4E1,-1.1867698E-3,1.7767965E9,-1.4569811E-3,1.279E1,1.5E1,6.3E-1,1.691685E-3,5.766994E-2,-4.6646237E-2,-5.060521E-3,5.1450595E-2,1.5057394E-3,-4.417079E-2,1.1215913E-2],"split_indices":[118,4,115,4,1,118,50,0,0,0,0,0,0,0,0],"split_type":[0,0,0,0,0,0,0,0,0,0,0,0,0,0,0],"sum_hessian":[1.1806282E2,8.8924446E1,2.9138372E1,1.0148229E1,7.877622E1,2.3181103E1,5.957269E0,6.5232544E0,3.6249738E0,4.9680896E0,7.380813E1,1.6618444E1,6.562659E0,2.6144123E0,3.342857E0],"tree_param":{"num_deleted":"0","num_feature":"121","num_nodes":"15","size_leaf_vector":"1"}},{"base_weights":[-2.0225417E-2,-8.324471E-2,2.8323948E-1,4.6119086E-2,-1.1151714E-1,-3.650651E-1,6.592485E-1,-3.875485E-2,-3.274996E-3,1.791788E-2,-4.68574E-2,7.1413554E-2,2.0355014E-2],"categories":[],"categories_nodes":[],"categories_segments":[],"categories_sizes":[],"default_left":[0,0,0,0,0,0,0,0,0,0,0,0,0],"id":59,"left_children":[1,3,5,-1,7,9,11,-1,-1,-1,-1,-1,-1],"loss_changes":[2.3772507E0,2.5588546E0,5.4549694E0,0E0,3.0151205E0,2.578241E0,1.9570942E0,0E0,0E0,0E0,0E0,0E0,0E0],"parents":[2147483647,0,0,1,1,2,2,4,4,5,5,6,6],"right_children":[2,4,6,-1,8,10,12,-1,-1,-1,-1,-1,-1],"split_conditions":[1.21E-1,1.7764436E9,1.776794E9,4.6119086E-2,-9.108452E-3,2.12E-1,-9.267035E-4,-3.875485E-2,-3.274996E-3,1.791788E-2,-4.68574E-2,7.1413554E-2,2.0355014E-2],"split_indices":[99,115,115,0,40,99,4,0,0,0,0,0,0],"split_type":[0,0,0,0,0,0,0,0,0,0,0,0,0],"sum_hessian":[1.2207336E2,1.0168296E2,2.0390392E1,2.4250412E0,9.925792E1,7.495668E0,1.2894725E1,8.5606165E0,9.06973E1,2.9961848E0,4.499483E0,3.826268E0,9.068457E0],"tree_param":{"num_deleted":"0","num_feature":"121","num_nodes":"13","size_leaf_vector":"1"}},{"base_weights":[5.3860955E-2,8.251491E-2,-5.883278E-1,4.2837273E-2,1.0706921E0,-6.0528774E-2,1.4646218E-2,-1.9843774E-2,5.579053E-3,8.242542E-2,5.3528575E-3],"categories":[],"categories_nodes":[],"categories_segments":[],"categories_sizes":[],"default_left":[1,1,0,0,0,0,0,0,0,0,0],"id":60,"left_children":[1,3,5,7,9,-1,-1,-1,-1,-1,-1],"loss_changes":[2.3286612E0,4.6393685E0,2.141869E0,2.2023866E0,1.2371287E0,0E0,0E0,0E0,0E0,0E0,0E0],"parents":[2147483647,0,0,1,1,2,2,3,3,4,4],"right_children":[2,4,6,8,10,-1,-1,-1,-1,-1,-1],"split_conditions":[9.699571E2,6.9071606E2,4.1E1,1.7764504E9,2.219E2,-6.0528774E-2,1.4646218E-2,-1.9843774E-2,5.579053E-3,8.242542E-2,5.3528575E-3],"split_indices":[109,109,119,115,1,0,0,0,0,0,0],"split_type":[0,0,0,0,0,0,0,0,0,0,0],"sum_hessian":[1.229109E2,1.1849524E2,4.415654E0,1.1492412E2,3.5711243E0,2.792962E0,1.6226922E0,1.2939184E1,1.0198493E2,2.4231966E0,1.1479279E0],"tree_param":{"num_deleted":"0","num_feature":"121","num_nodes":"11","size_leaf_vector":"1"}},{"base_weights":[-2.8982928E-3,-1.8934007E-1,1.2057241E-1,5.8907975E-2,-4.2400166E-1,-4.7517714E-1,1.9075169E-1,1.242267E-2,-2.9119287E-2,-3.4872174E-2,3.0263722E-2,3.2984484E-3,-4.927227E-2,3.5802145E-2,9.14344E-4],"categories":[],"categories_nodes":[],"categories_segments":[],"categories_sizes":[],"default_left":[0,0,0,0,1,0,0,0,0,0,0,0,0,0,0],"id":61,"left_children":[1,3,5,7,9,11,13,-1,-1,-1,-1,-1,-1,-1,-1],"loss_changes":[2.8568933E0,2.9049366E0,3.2127423E0,2.1080425E0,4.020057E0,1.541355E0,4.8015833E0,0E0,0E0,0E0,0E0,0E0,0E0,0E0,0E0],"parents":[2147483647,0,0,1,1,2,2,3,3,4,4,5,5,6,6],"right_children":[2,4,6,8,10,12,14,-1,-1,-1,-1,-1,-1,-1,-1],"split_conditions":[1.8E1,4.6890833E-5,-9.53081E-3,1.3E1,6.840296E1,-1.0689321E-2,3.530412E1,1.242267E-2,-2.9119287E-2,-3.4872174E-2,3.0263722E-2,3.2984484E-3,-4.927227E-2,3.5802145E-2,9.14344E-4],"split_indices":[119,4,22,119,109,42,67,0,0,0,0,0,0,0,0],"split_type":[0,0,0,0,0,0,0,0,0,0,0,0,0,0,0],"sum_hessian":[1.2211261E2,4.843774E1,7.3674866E1,2.390143E1,2.453631E1,7.1560965E0,6.651877E1,1.9274555E1,4.6268735E0,2.130312E1,3.233189E0,3.1583269E0,3.9977696E0,1.935409E1,4.716468E1],"tree_param":{"num_deleted":"0","num_feature":"121","num_nodes":"15","size_leaf_vector":"1"}},{"base_weights":[1.3031313E-2,-1.4596969E-1,1.4537543E-1,5.984134E-1,-2.3090225E-1,8.073236E-2,8.639103E-1,-3.2968326E-3,7.1325235E-2,-4.7578394E-2,-7.3845866E-3,1.0453622E-2,-5.3324956E-2,-6.071462E-3,6.7802325E-2],"categories":[],"categories_nodes":[],"categories_segments":[],"categories_sizes":[],"default_left":[0,0,1,0,0,1,0,0,0,0,0,0,0,0,0],"id":62,"left_children":[1,3,5,7,9,11,13,-1,-1,-1,-1,-1,-1,-1,-1],"loss_changes":[2.6019905E0,3.6919088E0,3.0624256E0,2.3930726E0,3.003905E0,5.8625903E0,1.5174308E0,0E0,0E0,0E0,0E0,0E0,0E0,0E0,0E0],"parents":[2147483647,0,0,1,1,2,2,3,3,4,4,5,5,6,6],"right_children":[2,4,6,8,10,12,14,-1,-1,-1,-1,-1,-1,-1,-1],"split_conditions":[2E0,3.456E1,6.9071606E2,1.7764507E9,-3.7636976E-3,2.834581E2,2.747E1,-3.2968326E-3,7.1325235E-2,-4.7578394E-2,-7.3845866E-3,1.0453622E-2,-5.3324956E-2,-6.071462E-3,6.7802325E-2],"split_indices":[112,67,109,115,22,109,1,0,0,0,0,0,0,0,0],"split_type":[0,0,0,0,0,0,0,0,0,0,0,0,0,0,0],"sum_hessian":[1.2164357E2,5.5210075E1,6.6433495E1,5.035058E0,5.017502E1,6.1970657E1,4.4628406E0,2.8204463E0,2.2146118E0,7.053346E0,4.3121674E1,5.7268135E1,4.702523E0,1.0985976E0,3.3642426E0],"tree_param":{"num_deleted":"0","num_feature":"121","num_nodes":"15","size_leaf_vector":"1"}},{"base_weights":[2.8117063E-2,-1.5214157E-1,2.0359133E-1,2.270861E-2,-7.88615E-1,8.968739E-2,6.750294E-1,-4.8457095E-3,5.669239E-2,1.9489234E-2,-5.9076555E-2,-3.9981874E-3,3.305983E-2,5.1105738E-2,-2.8731002E-2],"categories":[],"categories_nodes":[],"categories_segments":[],"categories_sizes":[],"default_left":[0,0,1,0,0,0,0,0,0,0,0,0,0,0,0],"id":63,"left_children":[1,3,5,7,9,11,13,-1,-1,-1,-1,-1,-1,-1,-1],"loss_changes":[3.7883217E0,6.6024995E0,3.1946917E0,4.597931E0,3.1086082E0,3.6407623E0,2.7822323E0,0E0,0E0,0E0,0E0,0E0,0E0,0E0,0E0],"parents":[2147483647,0,0,1,1,2,2,3,3,4,4,5,5,6,6],"right_children":[2,4,6,8,10,12,14,-1,-1,-1,-1,-1,-1,-1,-1],"split_conditions":[2E0,1.3132578E-3,1.4875E2,9.1465696E-4,1.2924333E2,1.2595734E-3,3.1910478E-3,-4.8457095E-3,5.669239E-2,1.9489234E-2,-5.9076555E-2,-3.9981874E-3,3.305983E-2,5.1105738E-2,-2.8731002E-2],"split_indices":[112,22,1,40,1,22,4,0,0,0,0,0,0,0,0],"split_type":[0,0,0,0,0,0,0,0,0,0,0,0,0,0,0],"sum_hessian":[1.1778778E2,5.8167397E1,5.9620384E1,4.6388107E1,1.1779289E1,4.8977253E1,1.064313E1,4.2528652E1,3.8594577E0,1.6647298E0,1.0114559E1,3.722006E1,1.1757195E1,9.456553E0,1.1865773E0],"tree_param":{"num_deleted":"0","num_feature":"121","num_nodes":"15","size_leaf_vector":"1"}},{"base_weights":[1.1308608E-2,3.510547E-2,-7.332827E-1,-8.226441E-3,4.6986845E-1,-7.421272E-3,-5.701237E-2,2.2125475E-3,-4.8595104E-2,-3.8822696E-2,4.76953E-2],"categories":[],"categories_nodes":[],"categories_segments":[],"categories_sizes":[],"default_left":[0,0,0,0,0,0,0,0,0,0,0],"id":64,"left_children":[1,3,5,7,9,-1,-1,-1,-1,-1,-1],"loss_changes":[2.1811635E0,2.2425556E0,3.8668704E-1,3.9727106E0,4.4308176E0,0E0,0E0,0E0,0E0,0E0,0E0],"parents":[2147483647,0,0,1,1,2,2,3,3,4,4],"right_children":[2,4,6,8,10,-1,-1,-1,-1,-1,-1],"split_conditions":[7.055073E2,5.6051784E-3,-9.506617E-4,1.24E-1,4.63629E-1,-7.421272E-3,-5.701237E-2,2.2125475E-3,-4.8595104E-2,-3.8822696E-2,4.76953E-2],"split_indices":[1,28,28,92,109,0,0,0,0,0,0],"split_type":[0,0,0,0,0,0,0,0,0,0,0],"sum_hessian":[1.2064507E2,1.1783206E2,2.8130162E0,1.0804456E2,9.787496E0,1.1503928E0,1.6626234E0,1.0319305E2,4.851515E0,1.9830313E0,7.804464E0],"tree_param":{"num_deleted":"0","num_feature":"121","num_nodes":"11","size_leaf_vector":"1"}},{"base_weights":[6.431159E-2,7.978943E-1,3.8224433E-2,7.5698614E-2,4.06243E-3,-6.12591E-2,7.016278E-2,-6.479172E-3,1.09918695E-2],"categories":[],"categories_nodes":[],"categories_segments":[],"categories_sizes":[],"default_left":[0,0,0,0,0,0,1,0,0],"id":65,"left_children":[1,3,5,-1,-1,-1,7,-1,-1],"loss_changes":[2.3097954E0,1.3195868E0,4.1021338E0,0E0,0E0,0E0,2.3675702E0,0E0,0E0],"parents":[2147483647,0,0,1,1,2,2,6,6],"right_children":[2,4,6,-1,-1,-1,8,-1,-1],"split_conditions":[1.7764436E9,2.5E1,1.7764457E9,7.5698614E-2,4.06243E-3,-6.12591E-2,1.1749E2,-6.479172E-3,1.09918695E-2],"split_indices":[115,119,115,0,0,0,1,0,0],"split_type":[0,0,0,0,0,0,0,0,0],"sum_hessian":[1.2129106E2,3.1491733E0,1.1814189E2,1.4808403E0,1.6683328E0,2.5516348E0,1.15590256E2,4.4888447E1,7.0701805E1],"tree_param":{"num_deleted":"0","num_feature":"121","num_nodes":"9","size_leaf_vector":"1"}},{"base_weights":[6.6352435E-3,-8.2319665E-1,3.8184553E-2,-1.4249487E-2,-5.6038376E-2,6.9954574E-2,1.589607E-2,-6.401333E-3,1.1335096E-2],"categories":[],"categories_nodes":[],"categories_segments":[],"categories_sizes":[],"default_left":[1,0,0,0,0,0,0,0,0],"id":66,"left_children":[1,3,5,-1,-1,-1,7,-1,-1],"loss_changes":[3.2551236E0,7.367849E-2,2.987104E0,0E0,0E0,0E0,2.5287526E0,0E0,0E0],"parents":[2147483647,0,0,1,1,2,2,6,6],"right_children":[2,4,6,-1,-1,-1,8,-1,-1],"split_conditions":[6.9E0,1E0,7.08E0,-1.4249487E-2,-5.6038376E-2,6.9954574E-2,5.328303E-1,-6.401333E-3,1.1335096E-2],"split_indices":[1,47,1,0,0,0,45,0,0],"split_type":[0,0,0,0,0,0,0,0,0],"sum_hessian":[1.22132675E2,3.5542383E0,1.1857844E2,1.065345E0,2.4888933E0,1.3037343E0,1.17274704E2,6.88666E1,4.84081E1],"tree_param":{"num_deleted":"0","num_feature":"121","num_nodes":"9","size_leaf_vector":"1"}},{"base_weights":[3.259789E-2,-5.330105E-2,5.9202366E-2,2.3800679E-2,6.502367E-1,5.163394E-3,-3.195972E-2,-2.8766373E-2,6.645965E-2],"categories":[],"categories_nodes":[],"categories_segments":[],"categories_sizes":[],"default_left":[1,0,0,0,1,0,0,0,0],"id":67,"left_children":[1,-1,3,5,7,-1,-1,-1,-1],"loss_changes":[3.0270205E0,0E0,2.4729166E0,3.9689794E0,3.9844067E0,0E0,0E0,0E0,0E0],"parents":[2147483647,0,0,2,2,3,3,4,4],"right_children":[2,-1,4,6,8,-1,-1,-1,-1],"split_conditions":[6.67E0,-5.330105E-2,5.6202007E-3,4.691081E-3,4.7705412E-1,5.163394E-3,-3.195972E-2,-2.8766373E-2,6.645965E-2],"split_indices":[1,0,40,22,109,0,0,0,0],"split_type":[0,0,0,0,0,0,0,0,0],"sum_hessian":[1.20398476E2,2.4709876E0,1.1792748E2,1.12244545E2,5.682938E0,1.0171072E2,1.0533832E1,1.6240296E0,4.0589085E0],"tree_param":{"num_deleted":"0","num_feature":"121","num_nodes":"9","size_leaf_vector":"1"}},{"base_weights":[1.2114457E-2,-8.1731904E-1,3.7642013E-2,-1.5242625E-2,-5.7977274E-2,-2.671965E-1,1.1416334E-1,-3.3796754E-2,2.1444976E-2,3.212374E-2,1.6041051E-3],"categories":[],"categories_nodes":[],"categories_segments":[],"categories_sizes":[],"default_left":[0,1,0,0,0,0,0,0,0,0,0],"id":68,"left_children":[1,3,5,-1,-1,7,9,-1,-1,-1,-1],"loss_changes":[2.5606685E0,5.7573795E-2,2.7567654E0,0E0,0E0,4.5936604E0,3.4520047E0,0E0,0E0,0E0,0E0],"parents":[2147483647,0,0,1,1,2,2,5,5,6,6],"right_children":[2,4,6,-1,-1,8,10,-1,-1,-1,-1],"split_conditions":[9.08577E-1,5.297E1,1.9790289E0,-1.5242625E-2,-5.7977274E-2,5.3952825E-3,9.699571E2,-3.3796754E-2,2.1444976E-2,3.212374E-2,1.6041051E-3],"split_indices":[76,1,109,0,0,22,109,0,0,0,0],"split_type":[0,0,0,0,0,0,0,0,0,0,0],"sum_hessian":[1.184849E2,2.611626E0,1.15873276E2,1.1120676E0,1.4995584E0,2.2750433E1,9.312284E1,1.550083E1,7.2496033E0,1.5125213E1,7.799763E1],"tree_param":{"num_deleted":"0","num_feature":"121","num_nodes":"11","size_leaf_vector":"1"}},{"base_weights":[-1.07778385E-2,-4.65145E-1,5.0572794E-2,2.7859753E-2,-6.108484E-1,3.0116388E-1,-5.899895E-2,-4.9086045E-2,2.2667056E-4,-6.83401E-3,3.3228893E-2,-6.9570006E-3,2.0068094E-2],"categories":[],"categories_nodes":[],"categories_segments":[],"categories_sizes":[],"default_left":[0,0,0,0,0,0,0,0,0,0,0,0,0],"id":69,"left_children":[1,3,5,-1,7,9,11,-1,-1,-1,-1,-1,-1],"loss_changes":[3.28549E0,2.1821592E0,2.8733552E0,0E0,1.6018519E0,3.3981855E0,1.6789868E0,0E0,0E0,0E0,0E0,0E0,0E0],"parents":[2147483647,0,0,1,1,2,2,4,4,5,5,6,6],"right_children":[2,4,6,-1,8,10,12,-1,-1,-1,-1,-1,-1],"split_conditions":[1.7764504E9,1.7764411E9,3.5328E1,2.7859753E-2,3.5E1,1.8E1,9E0,-4.9086045E-2,2.2667056E-4,-6.83401E-3,3.3228893E-2,-6.9570006E-3,2.0068094E-2],"split_indices":[115,115,67,0,119,119,112,0,0,0,0,0,0],"split_type":[0,0,0,0,0,0,0,0,0,0,0,0,0],"sum_hessian":[1.1601822E2,1.3018742E1,1.0299947E2,1.4678965E0,1.1550845E1,3.08034E1,7.2196075E1,8.390507E0,3.1603384E0,1.1863234E1,1.8940166E1,6.368371E1,8.512368E0],"tree_param":{"num_deleted":"0","num_feature":"121","num_nodes":"13","size_leaf_vector":"1"}},{"base_weights":[-1.3831629E-2,6.2835294E-1,-3.7710924E-2,7.243984E-2,-4.7989767E-3,-9.6225314E-2,2.2407737E-1,-3.8578894E-2,-9.3677395E-4,2.2138754E-2,-4.657384E-2],"categories":[],"categories_nodes":[],"categories_segments":[],"categories_sizes":[],"default_left":[0,0,0,0,0,0,0,0,0,0,0],"id":70,"left_children":[1,3,5,-1,-1,7,9,-1,-1,-1,-1],"loss_changes":[1.8792299E0,1.8988606E0,1.8230952E0,0E0,0E0,4.2573686E0,3.4441063E0,0E0,0E0,0E0,0E0],"parents":[2147483647,0,0,1,1,2,2,5,5,6,6],"right_children":[2,4,6,-1,-1,8,10,-1,-1,-1,-1],"split_conditions":[1.7764436E9,2.5E1,6.3E-2,7.243984E-2,-4.7989767E-3,6.840296E1,9.98E-1,-3.8578894E-2,-9.3677395E-4,2.2138754E-2,-4.657384E-2],"split_indices":[115,119,99,0,0,109,90,0,0,0,0],"split_type":[0,0,0,0,0,0,0,0,0,0,0],"sum_hessian":[1.20000626E2,3.3946545E0,1.1660597E2,1.4802616E0,1.914393E0,9.582075E1,2.0785229E1,1.1415892E1,8.4404854E1,1.870658E1,2.078649E0],"tree_param":{"num_deleted":"0","num_feature":"121","num_nodes":"11","size_leaf_vector":"1"}},{"base_weights":[-3.76251E-2,-7.9070985E-1,-8.853463E-3,-1.1272467E-2,-5.5210315E-2,8.071018E-2,-3.3727977E-2,6.569583E-2,-3.230406E-3],"categories":[],"categories_nodes":[],"categories_segments":[],"categories_sizes":[],"default_left":[1,0,0,0,0,0,0,0,0],"id":71,"left_children":[1,3,5,-1,-1,-1,7,-1,-1],"loss_changes":[2.5810401E0,1.6927695E-1,3.9543297E0,0E0,0E0,0E0,2.6680872E0,0E0,0E0],"parents":[2147483647,0,0,1,1,2,2,6,6],"right_children":[2,4,6,-1,-1,-1,8,-1,-1],"split_conditions":[6.9E0,6.57E0,7.08E0,-1.1272467E-2,-5.5210315E-2,8.071018E-2,-1.21412575E-2,6.569583E-2,-3.230406E-3],"split_indices":[1,1,1,0,0,0,42,0,0],"split_type":[0,0,0,0,0,0,0,0,0],"sum_hessian":[1.1844354E2,3.3840952E0,1.1505945E2,1.0316143E0,2.352481E0,1.1181054E0,1.1394134E2,1.059205E0,1.1288213E2],"tree_param":{"num_deleted":"0","num_feature":"121","num_nodes":"9","size_leaf_vector":"1"}},{"base_weights":[-2.296387E-2,5.011426E-2,-4.412331E-1,9.54223E-3,8.624368E-1,2.312378E-2,-6.42116E-1,-1.1433196E-2,1.2955271E-2,6.817658E-2,5.3002156E-4,-4.7937606E-2,2.5243659E-2,2.6577346E-2,-4.7966536E-2],"categories":[],"categories_nodes":[],"categories_segments":[],"categories_sizes":[],"default_left":[0,0,0,0,0,0,0,0,0,0,0,0,0,0,0],"id":72,"left_children":[1,3,5,7,9,11,13,-1,-1,-1,-1,-1,-1,-1,-1],"loss_changes":[3.678231E0,3.377193E0,1.6838362E0,4.1230154E0,1.1295447E0,2.4176435E0,2.492075E0,0E0,0E0,0E0,0E0,0E0,0E0,0E0,0E0],"parents":[2147483647,0,0,1,1,2,2,3,3,4,4,5,5,6,6],"right_children":[2,4,6,8,10,12,14,-1,-1,-1,-1,-1,-1,-1,-1],"split_conditions":[1.7768676E9,1.7767992E9,9.84E-1,5.3265065E-1,6E0,1.7768695E9,3.6632E0,-1.1433196E-2,1.2955271E-2,6.817658E-2,5.3002156E-4,-4.7937606E-2,2.5243659E-2,2.6577346E-2,-4.7966536E-2],"split_indices":[115,115,90,45,112,115,110,0,0,0,0,0,0,0,0],"split_type":[0,0,0,0,0,0,0,0,0,0,0,0,0,0,0],"sum_hessian":[1.1861261E2,1.0172062E2,1.6891985E1,9.7845406E1,3.8752122E0,5.3680944E0,1.1523891E1,4.9717907E1,4.8127502E1,2.6832583E0,1.1919539E0,1.4208709E0,3.9472234E0,1.2293818E0,1.0294509E1],"tree_param":{"num_deleted":"0","num_feature":"121","num_nodes":"15","size_leaf_vector":"1"}},{"base_weights":[-9.609622E-3,-1.1430035E-1,2.2816996E-1,-6.729531E-2,-7.4946463E-1,2.951446E-1,-5.4340005E-1,-5.7308427E-3,4.6460185E-2,-6.0128924E-2,-8.061188E-3,3.707439E-2,-3.8935788E-4,-5.3318717E-2,6.862718E-3],"categories":[],"categories_nodes":[],"categories_segments":[],"categories_sizes":[],"default_left":[0,0,0,0,0,0,0,0,0,0,0,0,0,0,0],"id":73,"left_children":[1,3,5,7,9,11,13,-1,-1,-1,-1,-1,-1,-1,-1],"loss_changes":[3.0138175E0,2.457407E0,2.0735946E0,1.9575292E0,7.496345E-1,3.3836694E0,8.5310936E-1,0E0,0E0,0E0,0E0,0E0,0E0,0E0,0E0],"parents":[2147483647,0,0,1,1,2,2,3,3,4,4,5,5,6,6],"right_children":[2,4,6,8,10,12,14,-1,-1,-1,-1,-1,-1,-1,-1],"split_conditions":[1.7767908E9,3.905E0,5.8743535E-3,3.6432E0,4E0,1.7768675E9,9.81E-1,-5.7308427E-3,4.6460185E-2,-6.0128924E-2,-8.061188E-3,3.707439E-2,-3.8935788E-4,-5.3318717E-2,6.862718E-3],"split_indices":[115,110,4,110,112,115,90,0,0,0,0,0,0,0,0],"split_type":[0,0,0,0,0,0,0,0,0,0,0,0,0,0,0],"sum_hessian":[1.1902168E2,8.299816E1,3.602352E1,7.83089E1,4.6892633E0,3.3714478E1,2.309044E0,7.6626236E1,1.6826571E0,2.8778465E0,1.811417E0,1.5780305E1,1.7934172E1,1.2840902E0,1.0249537E0],"tree_param":{"num_deleted":"0","num_feature":"121","num_nodes":"15","size_leaf_vector":"1"}},{"base_weights":[-2.7284764E-2,-3.153158E-1,4.672082E-2,-7.170815E-2,-6.116991E-1,8.289175E-2,-7.7358395E-1,2.655165E-2,-3.8356252E-2,-4.7955904E-2,3.3292137E-2,2.4498101E-2,4.3817276E-5,-5.3949285E-2,-1.1476431E-2],"categories":[],"categories_nodes":[],"categories_segments":[],"categories_sizes":[],"default_left":[0,0,1,0,0,0,0,0,0,0,0,0,0,0,0],"id":74,"left_children":[1,3,5,7,9,11,13,-1,-1,-1,-1,-1,-1,-1,-1],"loss_changes":[2.5519688E0,1.722219E0,2.8997881E0,4.531923E0,2.8289752E0,2.4711046E0,1.3021827E-1,0E0,0E0,0E0,0E0,0E0,0E0,0E0,0E0],"parents":[2147483647,0,0,1,1,2,2,3,3,4,4,5,5,6,6],"right_children":[2,4,6,8,10,12,14,-1,-1,-1,-1,-1,-1,-1,-1],"split_conditions":[-3.9168927E-3,2.0075E2,1.2146359E3,4E0,1.5E1,-2.2494497E-3,5.041E-1,2.655165E-2,-3.8356252E-2,-4.7955904E-2,3.3292137E-2,2.4498101E-2,4.3817276E-5,-5.3949285E-2,-1.1476431E-2],"split_indices":[28,1,109,112,118,28,53,0,0,0,0,0,0,0,0],"split_type":[0,0,0,0,0,0,0,0,0,0,0,0,0,0,0],"sum_hessian":[1.1803021E2,2.3460566E1,9.456964E1,1.3558395E1,9.902171E0,9.143674E1,3.132907E0,7.2289577E0,6.3294377E0,8.801831E0,1.10034E0,1.7632336E1,7.3804405E1,2.1295655E0,1.0033416E0],"tree_param":{"num_deleted":"0","num_feature":"121","num_nodes":"15","size_leaf_vector":"1"}},{"base_weights":[3.900223E-2,-3.3099707E-2,3.9049885E-1,7.0645705E-2,-3.9741862E-1,6.0803497E-1,-3.6615503E-1,-4.5120887E-2,6.473993E-3,-2.9174794E-2,4.3856658E-2,-2.7362378E-2,4.549081E-2,-5.1931135E-2,2.166745E-3],"categories":[],"categories_nodes":[],"categories_segments":[],"categories_sizes":[],"default_left":[0,0,0,0,0,0,0,0,0,0,0,0,0,0,0],"id":75,"left_children":[1,3,5,7,9,11,13,-1,-1,-1,-1,-1,-1,-1,-1],"loss_changes":[3.140005E0,3.9327157E0,3.692437E0,2.5715125E0,2.665597E0,3.0216613E0,1.1022074E0,0E0,0E0,0E0,0E0,0E0,0E0,0E0,0E0],"parents":[2147483647,0,0,1,1,2,2,3,3,4,4,5,5,6,6],"right_children":[2,4,6,8,10,12,14,-1,-1,-1,-1,-1,-1,-1,-1],"split_conditions":[6.3E-2,3.5472E1,5.3485547E2,9.716761E-1,2.3E-1,1.7767843E9,6.342887E2,-4.5120887E-2,6.473993E-3,-2.9174794E-2,4.3856658E-2,-2.7362378E-2,4.549081E-2,-5.1931135E-2,2.166745E-3],"split_indices":[99,67,109,109,97,115,109,0,0,0,0,0,0,0,0],"split_type":[0,0,0,0,0,0,0,0,0,0,0,0,0,0,0],"sum_hessian":[1.2238741E2,1.02307144E2,2.0080267E1,8.0258415E1,2.2048729E1,1.5748911E1,4.331357E0,2.6458442E0,7.761257E1,2.0967201E1,1.0815288E0,1.6955159E0,1.4053395E1,1.4186645E0,2.9126925E0],"tree_param":{"num_deleted":"0","num_feature":"121","num_nodes":"15","size_leaf_vector":"1"}},{"base_weights":[5.19324E-2,9.77368E-2,-4.7649032E-1,4.324187E-2,8.796051E-1,6.6766256E-1,-9.045708E-1,4.3259775E-3,-5.2582208E-2,6.9710776E-2,-1.1675909E-2,4.0644733E-3,5.9357032E-2,-6.557931E-2,-4.5169683E-4],"categories":[],"categories_nodes":[],"categories_segments":[],"categories_sizes":[],"default_left":[0,0,0,1,0,0,0,0,0,0,0,0,0,0,0],"id":76,"left_children":[1,3,5,7,9,11,13,-1,-1,-1,-1,-1,-1,-1,-1],"loss_changes":[2.9264107E0,4.662487E0,5.335812E0,2.8280172E0,2.3897562E0,5.515355E-1,1.251842E0,0E0,0E0,0E0,0E0,0E0,0E0,0E0,0E0],"parents":[2147483647,0,0,1,1,2,2,3,3,4,4,5,5,6,6],"right_children":[2,4,6,8,10,12,14,-1,-1,-1,-1,-1,-1,-1,-1],"split_conditions":[3.5676E1,3.5592E1,6.719482E-1,1.2527225E3,1.8884743E-3,1.7155667E2,3.5176E0,4.3259775E-3,-5.2582208E-2,6.9710776E-2,-1.1675909E-2,4.0644733E-3,5.9357032E-2,-6.557931E-2,-4.5169683E-4],"split_indices":[67,67,109,109,4,1,110,0,0,0,0,0,0,0,0],"split_type":[0,0,0,0,0,0,0,0,0,0,0,0,0,0,0],"sum_hessian":[1.1798158E2,1.09320564E2,8.661015E0,1.0318411E2,6.1364555E0,2.205798E0,6.4552164E0,1.0093823E2,2.2458801E0,4.7950053E0,1.3414502E0,1.1923423E0,1.0134557E0,5.15418E0,1.301036E0],"tree_param":{"num_deleted":"0","num_feature":"121","num_nodes":"15","size_leaf_vector":"1"}},{"base_weights":[-4.0664587E-2,1.6177604E-1,-1.6483805E-1,-5.0551385E-1,2.8765425E-1,-2.4102794E-1,3.5604256E-1,-4.379914E-2,2.1662388E-2,2.207241E-3,3.674907E-2,-4.5795392E-2,-7.8484025E-3,5.7424605E-2,-2.5564315E-2],"categories":[],"categories_nodes":[],"categories_segments":[],"categories_sizes":[],"default_left":[0,1,0,0,0,0,0,0,0,0,0,0,0,0,0],"id":77,"left_children":[1,3,5,7,9,11,13,-1,-1,-1,-1,-1,-1,-1,-1],"loss_changes":[3.098595E0,4.090311E0,3.1114311E0,1.7839155E0,3.2491367E0,3.7628777E0,5.1707373E0,0E0,0E0,0E0,0E0,0E0,0E0,0E0,0E0],"parents":[2147483647,0,0,1,1,2,2,3,3,4,4,5,5,6,6],"right_children":[2,4,6,8,10,12,14,-1,-1,-1,-1,-1,-1,-1,-1],"split_conditions":[3.5328E1,2.686E1,9E0,5.2977633E-1,1.7767023E9,3.54E1,9.347135E-4,-4.379914E-2,2.1662388E-2,2.207241E-3,3.674907E-2,-4.5795392E-2,-7.8484025E-3,5.7424605E-2,-2.5564315E-2],"split_indices":[67,1,112,45,115,67,4,0,0,0,0,0,0,0,0],"split_type":[0,0,0,0,0,0,0,0,0,0,0,0,0,0,0],"sum_hessian":[1.2120376E2,4.5964603E1,7.523916E1,6.816092E0,3.9148514E1,6.610688E1,9.132273E0,5.538897E0,1.2771952E0,2.271722E1,1.6431293E1,1.0488336E1,5.5618546E1,5.037434E0,4.0948386E0],"tree_param":{"num_deleted":"0","num_feature":"121","num_nodes":"15","size_leaf_vector":"1"}},{"base_weights":[-1.634168E-2,1.5774705E-2,-6.461948E-1,-3.1329345E-2,2.9075688E-1,-5.5676654E-2,3.7282305E-3,1.0037529E-3,-5.0047323E-2,-2.9959882E-2,3.024436E-2],"categories":[],"categories_nodes":[],"categories_segments":[],"categories_sizes":[],"default_left":[0,1,0,0,0,0,0,0,0,0,0],"id":78,"left_children":[1,3,5,7,9,-1,-1,-1,-1,-1,-1],"loss_changes":[2.3643181E0,1.4560122E0,1.189229E0,3.728235E0,3.021443E0,0E0,0E0,0E0,0E0,0E0,0E0],"parents":[2147483647,0,0,1,1,2,2,3,3,4,4],"right_children":[2,4,6,8,10,-1,-1,-1,-1,-1,-1],"split_conditions":[1.7768732E9,3.3914E2,2.04E-1,3.1588E2,-4.704261E-4,-5.5676654E-2,3.7282305E-3,1.0037529E-3,-5.0047323E-2,-2.9959882E-2,3.024436E-2],"split_indices":[115,1,97,1,4,0,0,0,0,0,0],"split_type":[0,0,0,0,0,0,0,0,0,0,0],"sum_hessian":[1.1537602E2,1.1070605E2,4.6699767E0,9.527213E1,1.5433912E1,3.1192198E0,1.5507567E0,9.081474E1,4.4573927E0,2.9960828E0,1.2437829E1],"tree_param":{"num_deleted":"0","num_feature":"121","num_nodes":"11","size_leaf_vector":"1"}},{"base_weights":[-5.9355102E-2,9.4004476E-4,-4.4847938E-1,-5.9666704E-2,3.4577906E-2,-6.6424084E-1,3.0748262E-3,4.3438934E-3,-4.687912E-2,-5.512198E-2,-1.895779E-3,2.5712729E-2,-4.1933186E-2],"categories":[],"categories_nodes":[],"categories_segments":[],"categories_sizes":[],"default_left":[0,0,0,0,0,0,0,0,0,0,0,0,0],"id":79,"left_children":[1,3,5,-1,7,9,11,-1,-1,-1,-1,-1,-1],"loss_changes":[2.7911303E0,3.5160573E0,1.556987E0,0E0,3.190193E0,1.7102642E0,2.1379836E0,0E0,0E0,0E0,0E0,0E0,0E0],"parents":[2147483647,0,0,1,1,2,2,4,4,5,5,6,6],"right_children":[2,4,6,-1,8,10,12,-1,-1,-1,-1,-1,-1],"split_conditions":[9.93E-1,4.6009493E-1,5.3381747E-1,-5.9666704E-2,6.4371596E-3,1.4E1,1.61E-1,4.3438934E-3,-4.687912E-2,-5.512198E-2,-1.895779E-3,2.5712729E-2,-4.1933186E-2],"split_indices":[90,109,45,0,4,118,86,0,0,0,0,0,0],"split_type":[0,0,0,0,0,0,0,0,0,0,0,0,0],"sum_hessian":[1.1794435E2,1.0298441E2,1.495994E1,2.432762E0,1.0055165E2,9.804262E0,5.1556783E0,9.6968025E1,3.5836196E0,6.669524E0,3.1347377E0,3.4525385E0,1.7031395E0],"tree_param":{"num_deleted":"0","num_feature":"121","num_nodes":"13","size_leaf_vector":"1"}},{"base_weights":[1.7901683E-2,-7.801885E-2,2.3629268E-1,-1.5513445E-2,-6.06104E-2,-3.0304968E-2,8.480933E-1,-1.5010404E-2,8.317544E-3,-1.19351605E-2,3.6049332E-2,6.4691536E-2,-2.0325834E-2],"categories":[],"categories_nodes":[],"categories_segments":[],"categories_sizes":[],"default_left":[0,0,0,0,0,0,0,0,0,0,0,0,0],"id":80,"left_children":[1,3,5,7,-1,9,11,-1,-1,-1,-1,-1,-1],"loss_changes":[2.4576843E0,4.742132E0,5.8621726E0,2.839417E0,0E0,2.8745089E0,3.3406148E0,0E0,0E0,0E0,0E0,0E0,0E0],"parents":[2147483647,0,0,1,1,2,2,3,3,5,5,6,6],"right_children":[2,4,6,8,-1,10,12,-1,-1,-1,-1,-1,-1],"split_conditions":[1.7767908E9,3.896E0,1.23E-1,1.8E1,-6.06104E-2,4.1E1,5.0208E0,-1.5010404E-2,8.317544E-3,-1.19351605E-2,3.6049332E-2,6.4691536E-2,-2.0325834E-2],"split_indices":[115,110,99,119,0,119,110,0,0,0,0,0,0],"split_type":[0,0,0,0,0,0,0,0,0,0,0,0,0],"sum_hessian":[1.1544205E2,8.065843E1,3.478361E1,7.6542534E1,4.1158996E0,2.4888632E1,9.894981E0,3.009824E1,4.6444294E1,2.0181644E1,4.706987E0,8.364827E0,1.530154E0],"tree_param":{"num_deleted":"0","num_feature":"121","num_nodes":"13","size_leaf_vector":"1"}},{"base_weights":[6.668885E-2,8.281476E-2,-4.8889205E-2,5.288095E-2,6.333805E-2,-4.349007E-2,5.725908E-3],"categories":[],"categories_nodes":[],"categories_segments":[],"categories_sizes":[],"default_left":[0,0,0,0,0,0,0],"id":81,"left_children":[1,3,-1,-1,5,-1,-1],"loss_changes":[1.7630148E0,1.7800596E0,0E0,0E0,3.0112467E0,0E0,0E0],"parents":[2147483647,0,0,1,1,4,4],"right_children":[2,4,-1,-1,6,-1,-1],"split_conditions":[7.093287E2,1.7764411E9,-4.8889205E-2,5.288095E-2,1.7764449E9,-4.349007E-2,5.725908E-3],"split_indices":[1,115,0,0,115,0,0],"split_type":[0,0,0,0,0,0,0],"sum_hessian":[1.1827676E2,1.170417E2,1.2350532E0,1.7331252E0,1.1530858E2,3.6670346E0,1.1164155E2],"tree_param":{"num_deleted":"0","num_feature":"121","num_nodes":"7","size_leaf_vector":"1"}},{"base_weights":[-5.0779562E-2,6.819147E-1,-7.503433E-2,6.388726E-2,6.092294E-3,-9.545686E-1,-2.6251681E-2,-6.344469E-2,-1.9018402E-2,-9.290583E-3,9.402737E-3],"categories":[],"categories_nodes":[],"categories_segments":[],"categories_sizes":[],"default_left":[0,0,0,0,0,0,0,0,0,0,0],"id":82,"left_children":[1,3,5,-1,-1,7,9,-1,-1,-1,-1],"loss_changes":[2.1385663E0,7.502465E-1,4.8917975E0,0E0,0E0,5.7847023E-2,2.602944E0,0E0,0E0,0E0,0E0],"parents":[2147483647,0,0,1,1,2,2,5,5,6,6],"right_children":[2,4,6,-1,-1,8,10,-1,-1,-1,-1],"split_conditions":[1.7764436E9,1.9E1,-1.006952E-2,6.388726E-2,6.092294E-3,5.2721274E-1,1.3E1,-6.344469E-2,-1.9018402E-2,-9.290583E-3,9.402737E-3],"split_indices":[115,119,22,0,0,45,118,0,0,0,0],"split_type":[0,0,0,0,0,0,0,0,0,0,0],"sum_hessian":[1.1645882E2,2.862837E0,1.1359598E2,1.2220216E0,1.6408154E0,4.99369E0,1.0860229E2,3.7331092E0,1.2605805E0,6.386803E1,4.473426E1],"tree_param":{"num_deleted":"0","num_feature":"121","num_nodes":"11","size_leaf_vector":"1"}},{"base_weights":[-2.6199682E-2,7.575532E-2,-2.1899858E-1,3.9370682E-2,8.19823E-2,-3.1362557E-1,7.7992654E-1,4.137917E-3,-3.981974E-2,-2.789246E-2,1.3427175E-2,-3.1371391E-3,6.7085944E-2],"categories":[],"categories_nodes":[],"categories_segments":[],"categories_sizes":[],"default_left":[0,0,0,0,0,0,0,0,0,0,0,0,0],"id":83,"left_children":[1,3,5,7,-1,9,11,-1,-1,-1,-1,-1,-1],"loss_changes":[2.4070718E0,3.7164555E0,4.2451086E0,1.6918775E0,0E0,3.3043866E0,1.1698325E0,0E0,0E0,0E0,0E0,0E0,0E0],"parents":[2147483647,0,0,1,1,2,2,3,3,5,5,6,6],"right_children":[2,4,6,8,-1,10,12,-1,-1,-1,-1,-1,-1],"split_conditions":[1.1825013E-3,1.0806634E-3,4.7E1,6.494735E2,8.19823E-2,1.7767908E9,1.9796242E-3,4.137917E-3,-3.981974E-2,-2.789246E-2,1.3427175E-2,-3.1371391E-3,6.7085944E-2],"split_indices":[4,4,119,1,0,115,4,0,0,0,0,0,0],"split_type":[0,0,0,0,0,0,0,0,0,0,0,0,0],"sum_hessian":[1.2061084E2,7.9288795E1,4.132205E1,7.811705E1,1.1717451E0,3.837305E1,2.9489973E0,7.582697E1,2.2900794E0,3.005061E1,8.322443E0,1.0963548E0,1.8526424E0],"tree_param":{"num_deleted":"0","num_feature":"121","num_nodes":"13","size_leaf_vector":"1"}},{"base_weights":[-7.953192E-2,-1.3684624E-1,2.987904E-1,-5.709932E-1,-7.441441E-2,5.679159E-1,-1.6314007E-1,-5.150528E-2,2.7590709E-2,4.1913487E-2,-6.8423594E-3,-1.0829454E-2,4.939787E-2,-5.6935966E-2,3.4861673E-2],"categories":[],"categories_nodes":[],"categories_segments":[],"categories_sizes":[],"default_left":[0,0,0,0,0,0,0,0,0,0,0,0,0,0,0],"id":84,"left_children":[1,3,5,7,9,11,13,-1,-1,-1,-1,-1,-1,-1,-1],"loss_changes":[2.6099732E0,2.7650056E0,2.0695667E0,4.2088E0,2.8885674E0,2.1117344E0,4.4288864E0,0E0,0E0,0E0,0E0,0E0,0E0,0E0,0E0],"parents":[2147483647,0,0,1,1,2,2,3,3,4,4,5,5,6,6],"right_children":[2,4,6,8,10,12,14,-1,-1,-1,-1,-1,-1,-1,-1],"split_conditions":[1.23E-1,1.8487229E0,2.16E-1,1E1,2.689285E2,1.289E2,1.7767908E9,-5.150528E-2,2.7590709E-2,4.1913487E-2,-6.8423594E-3,-1.0829454E-2,4.939787E-2,-5.6935966E-2,3.4861673E-2],"split_indices":[99,109,99,112,109,1,115,0,0,0,0,0,0,0,0],"split_type":[0,0,0,0,0,0,0,0,0,0,0,0,0,0,0],"sum_hessian":[1.1748226E2,1.0258007E2,1.490219E1,1.1872639E1,9.070743E1,9.271234E0,5.630957E0,9.41478E0,2.457859E0,3.6122937E0,8.709514E1,2.4333773E0,6.837856E0,2.6050427E0,3.0259142E0],"tree_param":{"num_deleted":"0","num_feature":"121","num_nodes":"15","size_leaf_vector":"1"}},{"base_weights":[-6.0987066E-2,-2.4269107E-1,9.9285126E-2,7.969372E-1,-3.0843782E-1,1.7124029E-1,-6.0056216E-1,6.72287E-2,9.477785E-3,-2.8039189E-2,3.0601642E-3,1.582226E-2,-2.7697232E-2,-6.879299E-2,-4.8447964E-3],"categories":[],"categories_nodes":[],"categories_segments":[],"categories_sizes":[],"default_left":[0,0,0,0,0,0,0,0,0,0,0,0,0,0,0],"id":85,"left_children":[1,3,5,7,9,11,13,-1,-1,-1,-1,-1,-1,-1,-1],"loss_changes":[3.344277E0,3.9178433E0,3.1890912E0,5.412817E-1,2.9505334E0,3.4192176E0,1.5920272E0,0E0,0E0,0E0,0E0,0E0,0E0,0E0,0E0],"parents":[2147483647,0,0,1,1,2,2,3,3,4,4,5,5,6,6],"right_children":[2,4,6,8,10,12,14,-1,-1,-1,-1,-1,-1,-1,-1],"split_conditions":[2E0,1E0,1.5E1,5.3086084E-1,1.4E1,9.93E-1,5.913667E-4,6.72287E-2,9.477785E-3,-2.8039189E-2,3.0601642E-3,1.582226E-2,-2.7697232E-2,-6.879299E-2,-4.8447964E-3],"split_indices":[112,80,118,45,118,90,4,0,0,0,0,0,0,0,0],"split_type":[0,0,0,0,0,0,0,0,0,0,0,0,0,0,0],"sum_hessian":[1.1300899E2,5.272232E1,6.0286663E1,2.4743912E0,5.0247932E1,5.5351036E1,4.935627E0,1.1423903E0,1.332001E0,3.4637245E1,1.5610686E1,4.8803867E1,6.5471687E0,1.8191742E0,3.116453E0],"tree_param":{"num_deleted":"0","num_feature":"121","num_nodes":"15","size_leaf_vector":"1"}},{"base_weights":[-1.433096E-3,3.2690305E-2,-5.898373E-1,1.0979078E-1,-2.1792816E-1,1.0210005E-2,-9.2073554E-1,3.7675563E-3,3.667642E-2,-2.6279775E-2,1.683418E-2,-6.261247E-2,-1.6648667E-2],"categories":[],"categories_nodes":[],"categories_segments":[],"categories_sizes":[],"default_left":[0,0,0,0,0,0,0,0,0,0,0,0,0],"id":86,"left_children":[1,3,5,7,9,-1,11,-1,-1,-1,-1,-1,-1],"loss_changes":[2.4554992E0,2.2582622E0,1.8424842E0,2.0614295E0,3.144022E0,0E0,9.1681E-2,0E0,0E0,0E0,0E0,0E0,0E0],"parents":[2147483647,0,0,1,1,2,2,3,3,4,4,6,6],"right_children":[2,4,6,8,10,-1,12,-1,-1,-1,-1,-1,-1],"split_conditions":[5.6270035E-3,9.479612E-4,3.4428E1,2.1203312E-4,3.9E1,1.0210005E-2,9.85E-1,3.7675563E-3,3.667642E-2,-2.6279775E-2,1.683418E-2,-6.261247E-2,-1.6648667E-2],"split_indices":[4,42,67,22,119,0,90,0,0,0,0,0,0],"split_type":[0,0,0,0,0,0,0,0,0,0,0,0,0],"sum_hessian":[1.2033551E2,1.1463208E2,5.70343E0,8.8092995E1,2.6539083E1,1.8773324E0,3.8260977E0,8.1573296E1,6.5197034E0,1.8495417E1,8.043666E0,2.6902266E0,1.1358712E0],"tree_param":{"num_deleted":"0","num_feature":"121","num_nodes":"13","size_leaf_vector":"1"}},{"base_weights":[3.4830112E-2,6.874601E-2,-5.9531623E-1,3.6806956E-2,6.8531907E-1,-6.268951E-2,-2.2600994E-2,3.5663196E-3,-4.385776E-2,6.6188015E-2,-1.238339E-2,2.7732564E-2,-3.960544E-2],"categories":[],"categories_nodes":[],"categories_segments":[],"categories_sizes":[],"default_left":[0,0,0,0,0,0,0,0,0,0,0,0,0],"id":87,"left_children":[1,3,5,7,9,-1,11,-1,-1,-1,-1,-1,-1],"loss_changes":[2.638629E0,